/*
 * dory.h
 * Alessio Burrello <alessio.burrello@unibo.it>
 *
 * Copyright (C) 2019-2020 University of Bologna
 * 
 * Licensed under the Apache License, Version 2.0 (the "License");
 * you may not use this file except in compliance with the License.
 * You may obtain a copy of the License at
 *
 *     http://www.apache.org/licenses/LICENSE-2.0
 *
 * Unless required by applicable law or agreed to in writing, software
 * distributed under the License is distributed on an "AS IS" BASIS,
 * WITHOUT WARRANTIES OR CONDITIONS OF ANY KIND, either express or implied.
 * See the License for the specific language governing permissions and
 * limitations under the License. 
 */

__attribute__((section(".data"))) float Conv0_weights[128]={   5,    0,   15,    0,   63,    0,  101,    0,  -91,    0,  -69,
          0,  -15,    0,  -33,    0,  -32,    0,  112,    0,   80,    0,
        -96,    0,  -66,    0,   10,    0,   12,    0,  -35,    0,  -64,
          0,   29,    0,  -38,    0,  103,    0,   22,    0,   19,    0,
          5,    0,  -92,    0,  -45,    0,   -1,    0,  100,    0, -123,
          0,  -36,    0,   76,    0,   26,    0,  113,    0,  -45,    0,
         12,    0,  102,    0,    7,    0,   52,    0,  -48,    0,   29,
          0, -128,    0,   87,    0,   79,    0,  -54,    0,  124,    0,
          3,    0,  -67,    0,  -61,    0,   16,    0,  -16,    0,   73,
          0,  -44,    0,  -12,    0,  101,    0,  127,    0,  -72,    0,
        -66,    0,   56,    0,  -80,    0,   17,    0,  -11,    0,   57,
          0, -119,    0,  108,    0,   62,    0};
__attribute__((section(".data"))) float Conv1_weights[36864]={  66,   45, -121,   62,  -67,  -94,  -99,  116,   49,  -99,  -96,
        107,   17,  -76,   79,   63,   81,   78, -119,   86,   81, -122,
         81,   63,   51,   95, -109,  -12, -126,  121, -119,  -16,   79,
        -74,   16,   73,  -82,   99,   38,  117,   -7,  -29,  -25,  -35,
        107,  -87,  -48,  -34,  -58,  -91,   14,  -32, -117,   39,   88,
        100,  -59,  114,   30,   69,  114,   19,   35,   70,   10,   24,
       -126,  -76,  -17,  -64,  -35,  124,   12, -102,   63,  -59,  126,
         83,  104,   37,  -82,   96, -120,    6, -109, -117,   28,   32,
         39,   27,  -15,  -88,   30,  -99,    4,  100,   35,   82,   12,
         -9,  -97,  -95,  -81,  -62,  -74,  -47,   31, -106, -108, -128,
        -84,  -40, -120,  -84,  106,  -13,  100,  -10, -102,   57,   27,
        -17,  -38,   61,   61,  104, -123,   87, -103, -106,  -99,  -38,
        -51,  126,  -74,  -40,    6,   60,   94,   17,  -95,   18, -127,
         38,   -8,   12,  106,  -13,   20,   -6,   86,   84,    9,   57,
        110, -118,   47,  -77,  -31,   94,  -80,  100,   39,   -6,  -79,
        -30, -114,  125,   29,  -96,  -25,   28,   67,  -52,   46,   31,
          0,  -53,   74,   48,   -1,  -70,  110, -127,   29,  -46,  103,
         50,  -31,   98,   98,   33,  -43,   59,   72, -127,   46, -116,
        -99,  -24,   70,  -99,   91,  -40, -104,   78,   77,  -98,   53,
         75, -108,  -97,   60,  -81,   33,  126,  -94,  -40,  -12,  -94,
         71, -112,  110,   73,   16,   94, -106,   63,  -99,   11,   31,
         83,  -16,   46,   13,  -24,   75,   33,    3,   67,   23,   14,
         75,   30,  -53,  -17,   82,   55,  -86,  -91,  -24,  -96,   21,
         46,  -98,   43,  -88,  -61,  -79,   -3,  117,   44,    1,   29,
        122, -110, -104,  -45,  -28,   28,   -2,  -86,  119,    4,  -25,
        -39,   79, -113,   -4, -105,   51,   37, -124,   58, -114, -123,
       -114,  -96,  117,   56,   70,  -61, -119,   -8,  -67,  -83,  -21,
        -69,   51,  -76,  125,  -98,  -23,  -16, -104,   61,   31,  -27,
        -55,   71,  -23,  -82,   88, -108,  -60,   50,  101,   27,  -63,
       -111, -122,  107,   -8,  -33,   72,  -44,   82, -116,  -98,  124,
        124,   48,  100,  -14,  -98,  113, -112, -111,   46,  102, -115,
        -49,   45, -114,   63,  -81,    8,   54,    4,   74,  -45,   80,
       -117,  127,   85,  -76,  -36,   69,   92,  -86,  -51,    6, -104,
         78,   13,    3,   59,   54,   94,  -97,  -99,   88,   64,  -81,
        -52,  -69,   -4,   94,   56,   65,   54,   12,   96,  -76,   82,
        -34,   29,  104,  -59,  -12, -101,   33,  -22,  -57,    3,  -39,
        -91,   90,   -5,  -28,  -70, -109,  111,   98,  120,  -56,   69,
        -57,   -6,  118,   48,  -83,  -53,   -2,  -38, -104,  -76,  121,
         98,  -50,   52,   42,   92,   22,   37,   25,   81,  -24, -128,
         35,   64,  123,  -25,  -19,   50,   -2,  -39,    5,   73,   43,
       -103,   55,   21,   33,   -4,  114,    3,   86,   16,   45, -126,
        -85,  -53,   14,   73,   74,  -59,   20,    5,   -7,  -97,   -8,
         81, -118,   20,  -82,   -6,  -71,  -80,  -91,  -62,   69,  102,
         62,  125, -116,   -8,   61,  -48,  -42,   86, -106,   88,   17,
       -127,  -77,   89,   27,   52,   89,  119,   25,  101, -102,    1,
        -16,   90, -119, -115,   15,   81,   68,   18,  -72,  -19,   65,
        -32,   62,  -87,  -92,  -78,   29,   11,  -24, -122,  -22,  -97,
        -30,  -85,  -65,  -28,  -40,   13,    4,   84,   -6,  -76,  104,
        -82, -109,  112,   73,   67,  -78,  -41,  116,  -71,  -84,  -81,
        -66,  -39,  -99,   92,  -26,   81,   40,  122,   22,   21,   13,
        115,   11,   94,   71,   58,  111, -110,   -2, -121,  -30,  -38,
        112, -109,  -88,  -64,   40, -119,  -76,  -75, -114,  119, -103,
        -94,  -59,   54,   -7,  -38,   66,   -5,   17,  -49,   -2,   42,
        103,  -39,  -18, -100,   95,  -87,   89, -103,  -58,   57,  111,
        -91,    0,  -75,   84,  113,  -29,  -38, -127,    8,  -27,  -13,
        100,   65,  -40,   45,  -60,   66,   44,  103,   63,   10,   43,
         48, -100, -106,  -62,  -53,  -39, -100,   25,   95,  -59,  -94,
       -121,    3,  -71,  -73,  -50,  -97, -121,  -13,   25,    3,   -5,
         65,  -48,   75,   -7,   15,   80,   15, -100, -125,  -40,   30,
       -105,  -87,  -46,   58,   28,   39,  -32,  -65, -108,   88,   29,
        -14,  -33,  -62,  -84, -103,  -68,   86,   68,   56,  -86,   30,
        112,  -99,   99,  -97,  -86,   99,    1,   49,   39,  -30,  -25,
        -75,    6,  -37,  -35,    3,    1,  -20,  -85,   -3,  119,   78,
         31, -121,  124,   99,   49,  -89,  -64,  -15,  -49,  101,   64,
        111,  -50,  -44, -123,   13,   65,   21,  108,   81,  -32,   91,
         33,   75,  -38,    6,  -66,   78,    8,    3,  116,   29,  111,
         -7,  -26,   12,   42,  -29, -106,  -29,  -93,  -60,   57, -115,
        -78,   -2,   11,  114,  -39,   39,  -45,  -30,  -83,   53,   30,
        -12,  -41,   52,  126, -106,   32,  104,   89,   63, -126,    2,
        -95,  -13,  -33,  102,  -43, -118,   22,   50,  116,  -41, -115,
       -111,   42,    5,  -37,  -47,   95,   48,  -81, -121,   46,  -27,
        -98,    3,   86, -101,  -24,   86,   77,   39, -121,   -6,   75,
         92,   53,   68,  -13,  -68,   52,  106,   50, -126,  -49,    3,
       -127,  -85,  124,   21,  -82,  -40,  -42,   14,  -95,  -24,   60,
        -38,  -17,  109,   -9,  -60,   32,  -83,  -41,  102,  -16,   14,
        -13,   44,   44,  -52,  105,   20,    8,   60,   47,    5,  -54,
       -103, -106,  -13,  -93, -120, -117,   60, -111,  104,   90,  -84,
         23,    1,   -5,   -1,   51,   55,   -8, -122,  117,   55, -110,
         42,   46,   69, -104,   -7,  115,  -84,   62, -123,  -45,  120,
        -38,   76,  -82,   40,    8,   15,  -10,  -64,   70,  127,  -70,
         75,  100,  -67,   52,  113,  -54,  109, -118,  116,  -48,  102,
       -119,  -54,    8, -104,  -46,  104,   14,  -89,  -37,   12,  -16,
        127,  -67,   16,  -83,  -75,  108,    8,  -14,  -53, -124,  -19,
       -112,  -30, -106,  -14,   78,   91,   36,   72,  -61,   79,  114,
         60, -112,  -72,  -14,  -16,   22,   85,  -43, -116,   95,  -81,
        102,  -44,   14,  -78,  -99,  -88, -100, -101,  -92,    1,  125,
        -40,  -94,  125,  -41,   30, -101, -118,   -3,  -16,  -14,  -27,
        100,  -12,  -92,   42,   67,   48, -106,   20,  113,   93,  -15,
         -8,  -37,   -8,    5,  -20,    0,   38,  -62,  -49,   21,  -50,
        -26, -121, -115, -121,   33,  -84,    2,   30,    6,  -86,  -49,
        -32,   51,    1,   20,  -19,  -22,  123,  -24,  -30,  -72,    8,
       -119,  123,  -16,  -38,  100,   -9,   64,  -75,   90,  -15,   89,
        -55,   15,  -77,   96,  -40,  -45,   -6,  -32,   46,  104,   89,
       -106,   96,  -18,  -19,  -22,   80,   26,  -64,   54,   30,   36,
        -19,  -35,  100,  -88,   42,   44,  -82,  -10,  107,   26,   67,
        -23,  105,  -21,  -53,  121, -111,   25,   90,  -45,   56,  107,
         48,   97,  -65, -104,   45,  -65,   12,  -63,  -98,  127,  -80,
        115,   87,   -5,   86,   93, -128, -112,   52,  -50,  118,   20,
        113,   25,  -28, -120,  -17,  110,  -84,  -72,   65,  102,  116,
        -85,   65,   47, -101,   48, -124,   66,   67,  127,   -8,  -26,
         90,   -7,  117,  -25,   55,  -94, -117,   -6,   44,   94,    5,
         53,  106,  -90,   62,   86, -122,   29, -109, -126,   15,  -94,
         -1, -111,   45,    0,  119,  -60,   19,  109,  -61,  -44,   36,
         10,   85,  125, -113, -104,   67, -116, -117,   72,  -12,  -28,
         93,  -26, -127,   89,  -80,  -22,  -57,  118,  -46,  -69,   -3,
          9,  -34, -127,   79,   -1,  -38, -118, -115,   94,  -86, -119,
         85,  -33,   27,   77,   24,   53,  -92,   30,   63, -116,   10,
       -116,  124,   69,   80,   43,  -35,  -60,  -10,   15, -108,   71,
         90,  113,  -36,  -15,   53,   79,  -49,   41,  -18,  -88,  115,
          7,   54,   76, -108,  -83,   -6,  -74,   -9,  101,   41,  -88,
         30,    2,   -3,  -77,   37,  -42,  -67,  -17,  -82,  106,  -19,
          5,   37,  -57,  -26,   17,  103,  -37,  118,    9,  101,   70,
        -24,   38,  -95,   48, -127,   63,   41,   51,  -24,   52,  -77,
         79,  -24,   73,   74,  -63,   46,   71,   63,  -59,  -16,   18,
       -109,  -28,  -36,  106,  -64,  -87,   15,  -87,   78,    9,   92,
       -126,  -38,   98,    6,  -33,   10,   58,   64,  -96,  -74,  122,
        -81,  -57,   64,   90,  -76,  -84,  -92,  -71,  -64,   36,  -78,
         16, -102, -115,    8,  120,  114,   32,  -36,  -65,  -69,   79,
        -17,   44,  -35,  -93,  -91,   90,  119,   42,   -8,   14,  -45,
          5,   85,   58,  118,   85,  117, -121,   45,  -55,  -84,   99,
        -28,  -74,   47, -103,  -76,   93,  -24,  -24,    5,   22,  -77,
         92,   46,   29,    4,  -32,  -91,  -73,  -77,   83,  -10,  106,
         11,  -57,  -10,  -80,  110,   69,  -73,   22,  -62, -108,   78,
         15, -113,   75,   99,  109,  -85,  -22,   47,  122,  106,   37,
        -43,  -50,   30,  -49,   -1,   -7,  -67,  -26,   -6,  114,  113,
         38,  -15,   43,   16,   -6, -117,   98,  -78,  -67,   15,  -75,
         53,   76,  -92,  -83,   24,   85,   97,  -30,   -5,   52,   50,
         31,   61,   17,  118,   45,   47,   89, -127,  120,  -11,   97,
        -38,  -45,   76, -122,   71,   89,   93,  103,  -38,   49, -108,
       -126,   42,   31,   58,  -28,  -41,  -36,    2, -112,   77,   83,
         33,  -99,   24,   81,  -36,  -73,   51,   99,  -99,  108,  -15,
        -57,  -15,   50,  -48,  -61, -125,  -46,   37,   72,   -6,   80,
        -52, -118,  -25,    1,    7,  -14,  113,  -30,  -14,  104,   47,
         -9,  101,  117,  109,  121,    4, -100,  -44,   38,  -75,  122,
         91,  -93, -125,    5,  -77,  -46,  124,   78,  127,    0, -100,
        -73,   68,  -17,  -37,  103,  -24,  -89,  -63,    2, -115,  -57,
        -47,  -93,  -60,  -43, -104, -103,  -88,    2,   14,  -76,  107,
        -24, -108,    1, -109, -111,  -78,   61,  104,   82,  -50,  -98,
         72,   31,  -16,    6,  -10,  -39,   24,  -50,  -63,  -38,  -96,
       -104,  -93, -119,  -59,  -11,  -68,  -28,   10,   42,  -29,  -16,
        -81,  -75,   58,   45,  100,  -93,   20,  -81,  122,  120,  -58,
        104,   26,   93,  -66,  -48,   32,  -93, -107,  -83,   91,   35,
         50,   76,   81,   73,   57,   96,   17,   17,  -99,   37,   20,
        -59,   53,  -22,  118,  -21,   84,  -83,  119, -120,  -43,   25,
         43,  122,   43,    0,    2,   44,  -89, -118,   12,  105,  -63,
          8,   24,  -61,  -69, -111, -118, -112, -112,   16,    3,   14,
        -62,  -23, -127,    2,   18,   64,  -46,   70,   62,  -16,   29,
         35,  -19,   46,  -96,  -74,  -11,  111,   43,   23,  -17,  -67,
        -77,   68,   25,   50,  -62, -101,  -23,   89, -100,  -29,  117,
         61,   38,  -39,  109,  -37,  -55,  102,   17,  -72,  108,  -40,
         67,  -77,   41,   55, -102,   25,  -20,   34,  -20,   60,   37,
        126,  -31, -119,   52,  103,    7,  -57,   24,   -1,  -57,  118,
        -52,   84, -121,  -35,   37,  -49,  118,  114, -127,   76,  -65,
        -70, -118,  -80,   30,   79,  -61,  -14,   38,   43,   59,  -47,
        -87,    1,    3,   40,   92,   64,   55,   19, -118,   54,   11,
         79,   79, -103,   28,    4,  -22,   41,  -87,  -84, -113,  123,
        -58,   70,    3,  -97,  -20,  -89,   -5,   98,    5,   13,   29,
        -19, -103,   94,   41,   50,  -99,   35,   30,  -75, -125,  -39,
       -122,  -24,   17,   17,  -15,  -89,  -72,   -2,  102,   39,  -47,
          3,   51,   91,  -44,  -37,   10,  125,  106,   89,  -54,  -93,
        -73,  -61,  109,   81,  -70, -127,   68, -112,   66,   37,   77,
        -25,   -5,    3,   53,  112,  -29,   98,   66,   -4,   76,   65,
         60,  123,  -28,   23,  -82,  -89, -125,    6,  114,  102,   37,
        -89,   -3,  -45,  -31,   51,  115,   -5,  -13,   35,  -23,  -14,
         48, -121,  -53, -113,  -46, -100,   25,   75,  -63,   53,   45,
        -38,  117,   46,   52,   21,   22,  100,   97,   17,  121, -121,
       -109,  -69,  -97,  103,   68, -124,   11, -114, -125,   66,   -1,
        -97,  -75,   -1,   67, -114,   51,  -21, -103,  -76,  124,  103,
        -66,  -10,  -14,   -2, -108,   99,  -95,   37,   -4,   51, -125,
        -82,  120,   73,  125, -114,  -51,   89,   -1,  104,   55,  -82,
         46, -116,   13,  -26,  -99,  -88, -110, -123,   20,  -90,  -60,
         14,  -36,   11,  -28,   47,   57,   70,  104,  124,  113, -127,
        100,   93,   64,    4,  -30,  -67,  -93,   -3,   47,   25,  -83,
        -41,  -44,   66,  -44,   -5,  -43,  -37,  -29,  -90,    3,   39,
          1,   77,   88,  -83, -112,  116,  -47,  113,  -68,   74,  112,
        -36,   49,   28,  -48,   46,  -92,  127,   41,   36,   23, -102,
        -75,    5,   14,   41,  -49,   62,   71,  -27,  -49,  -41,  -77,
        -45,   92,  -72,  -92, -125,  -62,  111,   91,  -39,   24,   49,
        109,   55,   94,  125,   90, -102, -100,  -78,  -12,  108,  -30,
       -108,   88,  -91,  -79,   54, -123,  109,   92,   37,   -3, -127,
        -98,  102,  -20, -104, -101,  -26,  -50,  109,  -61,  -43,    8,
         40,  -91,   33,  -99,   66,  -74,   68,   73,  120,   -2,   83,
        122,   85,  -29,   58,  126, -102,  124,   13,  111,  -21,  -11,
        -50,   31,   41,   26,  -73,    8,  123,   40, -101,  124,  -33,
        118,    6,  110,  -64,   53,   85,   64,  -12, -121,   21,  -90,
         30,   57,   76,  -40,  -59, -113,    0,   46,    3,   97,  -62,
        -88,   -5,   90,  103, -102,  -42,   90,   56,  112,   92,  -53,
         73,   19,  115,  -35, -101,  120,    5,   64,  -47,   67, -100,
        124,   81,  -69,   90,  -58,   -4,   -8,   -7,   16,   85,  -88,
         11,    7,   43,   76,  -28,   18,   79,   29,  -34,   39,  120,
         22,   76,   53,   57,   49,   91,  103,  -91,  -48,  -92,    2,
        -33,  -87,   93,   -1,  -31,  104, -112,  -17,   61,   28,  -84,
        -38,  124,  -42,  -14,   92, -114,  -69,   83,   78,  -38,  -61,
         71, -106, -108,  -11,   -2,  117,   45,   98,  -40,   76,  -53,
        -38,  -82,  -37,   -1,  -83, -108,   99,   -4,   -9, -117,   82,
         62,  114,  -41,  -41,  -67, -106,  -19,   49,  -63,  -65, -120,
         -9,   98,    4,  110,  -20,  -57,  -46,   71,  -53,  -49,  -48,
         82,   -4,  106,  -76,   53,   49,   -2,  -64, -114,   78,   69,
         -8,  -52,  -81,  -49,   20,  116,  -54,  -54,  -76,   93,   33,
        106,   94,  -27, -110,   46,  -79,  -58,  101,  -66,  -95,   86,
         -1,   33,  -38,   39,  112,  -71,    6,   17,  113,   14,   21,
        -69,  -96,  -60,   54,  -73,   -2,  112,   11,   -9,   -1,  -50,
        -17,  -48,  118,   25, -103,  -59,  -35,   30,   78,   91, -125,
        -93,  -68,  -37, -109,   -2,   92,   29,   54,   -8,  117,  -45,
         99,  120,   90,   35,   54,  -38,   34,  114,   77,    6,  -71,
        -59,  -69,  -68,   67, -118,   60,   -4,  -29, -128,   21,   -2,
        -96,   73, -128,   95, -106,  122,   49,  -55,   -2,  -60,  120,
         34,  -97,   71,  -30,  -29,  -98,   65,   24,   87,   38, -127,
         80,  -64,  -16, -125,  -73, -105, -125,   -4,   77,  -64,   32,
         46,  109,   71,   77,  -55, -109,  -70,  -76,   46,  -19,  -83,
         71,  123,  118,   76, -122,  -86,   68,   77,  -98,   62,   12,
         89,   85,  106,  -83,  -38,  -94,   72,  111,  -87,   82,   77,
        -57,    6,   18,  -12,   39,  -26,   19,  -76,   43,   98,   83,
         63,   46,  -27,   21,   60,  -24, -120,   96,  113,   31, -119,
        -32,   72,   70,   78,   35,  120,   32,   21,  -35,  118,  -76,
        126,   27,  -33,  -35,   54, -103,   22,  -79, -103,   11,  -17,
          1,  -28,   21,  -83,  101,   88, -100,   21,  -33,  124,    7,
        -43,  -61,   36,   76,  -39,   27,  123,   43, -128,   60,   87,
         48,  -63,  -12,   11,  -88,   -3,   37,   49,  -19,   26,  -73,
        -16,   69,   21,   97,  -16,   42,   22,  121,  -86,    4,   95,
         35,  -78,  -50, -125,   40,   52,  -66,   -8,   89, -114, -125,
        -65,  -96,  -53,   15,    6, -112,   49,   95,  122,  -95, -107,
         20,  -12,   40,   65,   -3,   68,   93,  -51,   38,   95,  -83,
        -51,    4,   76,   89,   -2, -120,   82, -121, -106,  126,   71,
        -45,  -11,  100,  -38, -121,  -58,   27,  -27,  118,   30,  -93,
        122,  -67,  127,  -60,  -48,  -68,   67,   99,  -18,   96,   22,
        -18,   41,   65,  -43,   21,  -54,  -64,  -39,   54, -123,  -54,
         65, -113,   81,   14,  -83,   46,  -15,   80,   11,  -63, -118,
        -81,  -80,  -56,   69,   78,    3, -103,  119,  113,   17,   86,
       -101,   35,   27,  -39,   37,   78,  -78, -113, -109,  126,   83,
        -51,   56,   56,  -39,   70,  -52,   55, -122,   15,  -83,  -97,
         76,   44,  -72,   99,   88, -117,  -25,   73,  -54,  -27,   50,
         -1,   27,   58,   70,  -86,   86,  -75,  115,  -12, -117,   -3,
         27,  -45,  116,  -80,   24, -103,    4,  -78,  -33,   93,    9,
         -4,   84,   90,  -64,   70,   61,  101,  -98,  -47,   27,  -46,
        -81, -111,   30,    6,   92,   11,   75,  -60,   97,   60,  -33,
        -52,  127,  -61,  118,   -1,   13,  106,   77,  104,  -89,  -31,
        -48, -121,  -25,   79,   92,  -46, -106,  109,  -70,  -30, -115,
        -77,  -61,   51,  -18, -111,  102,   69,  -71,  -71,  -70,  -26,
         30,  107,   57,  -52,   36,  106,  -42,  -74,   47,   -3,   99,
        -77,   -9,  -33,   25,  113,  115,   55,  -19,    0, -124,  -77,
        -44,  -88,  -53,   82,   70,   21,  -84,  104,   50,   42,   75,
       -128,   -1,   54, -109,  -26,   87,   90,   50,  106,   91,   38,
          7,  -40,  116,  -13, -114,   69,  -86,   69,  -76,  105, -113,
          4,   -3,   81,  -92,  -70, -121,  -50,  -65,   23,  124,   62,
        112,  121,   99,  -23,  -90,  113,    8,  -25, -122,  -40,    2,
         32,  108,  -20,  100,  -24, -106,   92,   18,   80,  -23,   79,
         40,   68,   96,   28,  103,  122,   39,  -31,  -43,  -11,   66,
        -23,   41,   38,  -33,  -95,   12,  -60,  -52,  -38,    3,  -30,
        -63,   94,  -26,  112, -119,  -73,   -5,  -25,  105,   43,   20,
         54,  -79,   79, -118,  -67,   39,   35,    8,  -90,  -36,  126,
         71,  -97,  -32,   50,   21,  -91,  120,  -35,  -73,   45,  -51,
        -51,  103,   58,   10,  -61,    6,  -44,   52,    6,    7,   -8,
        -59,   49,   79,  -23,   39,  -48,   99, -117,  113,   87,  -21,
        -93,  -79,   85,   72,  -65, -110,   65, -111,  -32,  -30,  -43,
        -20,  -40,  126,  -83,   -4, -127,  -16,   32,   -3, -123,  -44,
        -14,   77,   59,   27,   29, -124,   28,  -66,   59,   49,   36,
         49,  -16,   -5,  122,   86,   60,   40, -115,   53,  -89,  -13,
        -29,  -41,   53,   77,  -47,    7,  -59,  -93,   91,  -83,   24,
         14,  -78,   59, -110,   57,   68,   54, -114,   63, -122,  -99,
         16,   27,  -86,   10,   81, -111, -120,   -2,  -60,  -42,   13,
         50,  -93,   72,  -87,   66, -112,   57,   11,   12,   76,  -40,
       -114,    2,   92,  -23,  -36,  103,  -10,   23,   81,   83,  -61,
        -38,   22,   54,  117,  -26,  109, -106,   44,  -72,    6,   -6,
         57,    5,  -74,   95,   -2,  117,   45,  -58,  109,  -19,  -87,
         92,  120,   12,   35,   54,  114,   -9,   85,  -33,   -9,  -56,
         21,   -2, -124, -117,   76,  -90,  -15, -110,  -79, -128,   56,
        -67,  -56,  -91,   75,   70,  105,   87,   28,  -69,   -9,   63,
        -44, -104,  -52,    8,  -11,  -61,   31,  111,   37,   85,  -59,
         20,   78,  -10, -113, -103,   37,   27,   -2,   72,   61,  -71,
       -109,   -6,  -93,   62,   70,  -36,  -89,   79, -117,  -40,  122,
        -98,   12,   79,  -22,  -69,  106,  -33,   29,  124,    0,  -75,
         27, -105, -128,   50,   -5, -127,   91,   72,   35,    8,  121,
        102,  -92,   20,   68,   76,  -61,  -70,   70,   38,   -8,  -42,
        -85,  -34,   59,  -76,   89,  -47,  -39,   31,  -60,   69,  111,
         -5, -121,  -29,  -36,  -78,   95,  -54,  -65,   18,   99, -113,
         49,  -69,   58,  -87,  -21,  -68,  116,  -70,  -59,  -62,  -86,
         29,   12,   95,  104,  -25,  -54,  119,   -3, -113,  -99,  114,
         95,   34,   83,   59,   50,   91,   27,   81,  -69,  -18,  -72,
        -70,   -5,   58,  -49,  -38,  -92, -102,   40, -117,   91,  103,
         42,   82,  -87,   22,   92, -110,  -31,   -6,   49,   64,  -92,
        -90,  -54,   -4,   31,  -63,   37,    7, -109,   85,   10,   50,
        -39,   38,   69,   47, -118,   85,  121,  114,  121,  125,   68,
       -115,   -7,   92,   24,   67,   67,    4,   16,  118,  -92,  -61,
       -124,   26,   -8, -120, -105,   80,  -41,   79,   26,   11,   -1,
        -44,  -66,  -30, -113,   74,  112,  -53,  -35,  -31,   68,  -14,
        -39,    8,  -39,  -27,  121,  -17,   41,   25,   71,  -55, -106,
         84, -120,    6,  121,  105,   82,  -79,  -19,   62,   36,    8,
         86,  -42,   17,  105,  -25,   82,   62,   68, -118,  -40,  114,
       -112, -120,   42,  123,   56,  -16,  -40,   27,  -45,  -39,  -12,
        -19,   38,   47,   24,   21,   49,   90,  -88,  -21,   56,  -67,
         17,  -18,  126,  120,  -86,  115,   11,  -10,  -77,  -90,   65,
        -18,  105,  104,   15,  -12, -102,  -35,   73,   72,  -50,   74,
         12, -126,  -30,  121,   19,   39,  -59,   45,   84,   78, -125,
         78, -126,  -56, -111,   20,   12,  124,   87,    6,  -63,  -81,
        101,  -70,    9, -114,   21, -124,  -26,  -43,  -99,  -35,  106,
        -11,  116,   74,  -23,   -5,   65,  -70,   -3,   40,  -58, -102,
         47,   27,  127,   72,  -60,  114,   79,  -53,  -18,  -65,  -27,
        106,  -16,  -32, -113,  120,  -64,  -59,   86,   16,  -64,  122,
        -77,  -17,  123, -116,  -44,   67, -112,   38,  -74,   57,  -84,
         55,  123,    1,  -57,   63,   -5,   84,  107,  -34, -115,  -58,
        -99,    4,  -23,  -68,  100,   99,   24,   -6,   52,   15,  -73,
         33,   76,  -27,  -66,    5,  -67,   70,  -41,   -2,   38,   29,
        -35,   -1,   19,  -53,   71,   59, -119,  -19,  -89,  -35,  -92,
        112,    6,  -31,  -96,   81,   86,   69,  -60,   43,   77,  106,
         62,   13,  -69, -107,  115,   12,  -65,  -27,    7,   45,   56,
       -121,  -57,   -2,  -84,  -84,   96, -103,  -97,   76,  -99,  -55,
         65,   54,  -75,   36,  -74,  -53,  -48,   50, -114,  -72,   50,
         41, -103,  -62,   -2,  -69,   99, -104,  112,   19,   64,   29,
        -17,  -41,  -60,  -17,  -75,  127,   74,  -84,  -99,   90,  -92,
        -58,  -19, -109,   13,   80,   63,   95,   61,  116, -108,   20,
        -35,  -58,    0,  109,   18,   83,  106,  -30,   71,  126,  -77,
        123, -118, -124,   66, -119,  -82,  -40, -102,   78,  -96,  -17,
         61,   93,   66,  -74,   13,   -8,  -48,   96,  -47, -106,   72,
         52,  -88,  109,   36,  -12,    9,  -23,  121,  -69,   17,  116,
        120,  119,  -39,  -24,   71,  107,  -96,  -34,  -56, -111,   -3,
        101,  -34,    2,  -42,   -2, -109,    2,  -25,  -42,  -75,   32,
       -127,   72,   25,  -77,  -13,  -51, -117,  -39,    4,   43,    2,
          9,  109,   73,  -34,  101,   50,   78,   33,  -94,  117,   60,
         -5,  105,   58,    8,  -39,  -88,   89,  -70,  127, -126,  -43,
         62,   46,   80,  114,   99,   94,   89,  -87,    5,  113, -114,
          4,   40,  -65,  -12,  -55,  -63,   61,  114,   93,   90,  -80,
         -3,   87,   96,    1,  -57,   59,   83,   24, -117,  -15,   65,
        105,  -51,  -30,   46,   59,   16,  -52,   92,   69,  -41,   73,
         28, -114,   61,  -68,  -32,   62,  -71,  -40,  125,  -69,  -52,
        -86,   64,  -73,   12,   22,  -32,  114,  -84,  -52,   75,  -71,
        112,  -58,  -89,   47, -104,  -42,  -27,  -98, -127,  123,  -63,
       -100,  122,  -34,  -52,  -29,  106,   99,   84, -100,  113, -118,
       -122,  107,  -27,  122,  123,  -38,   18,  -40,  -12,  -62,  -97,
         -2, -101,  -25,   44,   71,   69,   43,  -61,   11,  -48,  -88,
        123,  -36,  -30,  -68,  123,   14,  113,  -65,  109,  104,  -81,
        -17,  112,  -63,   15,   91,  127,   18,   23,  127,   89,   53,
        110,   16,   62,   14,  117,    2,   54,  -48,   72,  -24,  -57,
         -9,  118,   24,  -62,   20,  -93,   79,   70,    6,   69, -104,
       -105, -111,   28,  120,   -1,   37,  113,  -84,  -11,   23,  110,
         86,  -17,  106,  -22,   22,   46,   69,  -82,   84,   66,    5,
        -19,  116,   -2,   78,  118,   84,  -14,  109,  -36,  -91,   87,
         55,  -10,   53,   -2,  118,    0,  -99, -127,  -58,    2,   82,
        105,  -60,  -80,  -26,   52,  117,  -13,  -26,   41,   37,    4,
         97,   21,  -61,   50,   36,   64,   62,  -27,  -10,   54,  -76,
        -58,  -81, -104,  -10,  -76, -110,    4,  -34,  -32,   17,  112,
       -105,  -42,  113,    6, -128,  -76,    1,  -95,   93,   67,    5,
        -32,   -6,  -12,   72,  -71,  -21,   55,   32,  107,  -51,   71,
         88, -124,  112,  -23,  105,  -14, -117,  -93,  107,  -21, -109,
         67,  -73,   20,  -89,  -86, -124,   77,  -20,  -39, -119,  -10,
         63,  -82,  -15,  -71,   96,  -65,   85,   38,   77,   65,  -63,
          4,  -47, -128,   84,   40,  -72, -127,   28,  -10,  -40,   16,
       -109,   12,   71,   84,   44,   -5,   50,  -24,    4,  -14, -106,
        -84,  -62,  -78,  -96,  -40,  -79,  -39,   21,   55,   98,    7,
        110,  115, -107,  -19,  -63,    1,  121, -103,   75,  -31,   54,
         21, -106,  117,  -44,   61,   -1,  -22,   -1, -117,   30,  -45,
       -118,   30,  -61,  -49,   98,  -97,  -98,  121,  -27,    7,  -12,
         29,  103,   99,   57, -125,   39,  -41,   63,  -81,   84,  107,
         54,   -5, -100, -104,  -41,   70,  -21,   23,    6,  -44,  -93,
       -106,  -10,   20,  -53,   40,  -26,    9,   45, -103, -117,  -38,
         10,  -77,   71,   11,  101,   90,  -33,  113,  -73,  -57,  -84,
          8,  -29,  -72,  -51, -101,  -15,  -30,  112,   29,   69,    4,
        -92,   99,   14,   65,  -29, -123,   42,  -96,  -97,  -72,   97,
         -8,  -67,  -30,  -62,  117,   81,  122,  -90,    9,  -67,  -88,
        121, -124,  -91,  -28,   44,  -44,  121,  -21,   57,    4,   69,
       -117,  -59,  106,   -4,   73,   24,   78,  -27,   89,  119,   42,
        -44,   16,  -53,  116,  -13,  -18, -104,   22,  -24,   55,   54,
         19,  110, -119,  -60, -100,   28,   98,   19, -128,   97,  -39,
        -12,  127,  -71, -117,   63,   15,   31,    1,  125,   -9, -125,
        100,  -76,  106,  116,  -23,  -46, -102,   85,  -11,   11,   36,
       -121,  108,   20, -116,  -28,    8,   77,  -86,  -21,    1,   16,
        -63,   35, -103,  -49,   29, -117, -127,   73,   -6,   17,  -94,
        -65,  -21,  -95,  111,   28,  118,  -99,  -98,  111,   11,    0,
        110,   59,  -50,  -58,  -38, -123,  -28,  103,   23,   52,  -44,
         15,   75,    6,  -43,   -9,   14, -121,   29,   29,  107,    2,
         99,  -69,   41,   75,  -72,  -46,   32,  -88,  -93,   64,   70,
         44, -102,   83,   30,   12,  -68,  116,  -46,   74,   66, -110,
        102,   31,  125,  -70,   79,   39,   35,   49,  118,  -73,  -72,
         88,  -79,  -96,  -18,  -50,   27,   -5,  -65,   36,  118,  -92,
         20,   56,   85,   10,  -49,  -78,  -60,   69,   30,   48,   81,
        -70,    0, -103, -108,  -76,   58,   48,  -24, -101,  -17,   -4,
         59,   -4,   26,  -11,  -81,   46,   -2,  -91,  -20,  -77,  -52,
         83,   30,   57,   11,  -40,   50,  -61,   17,  -72,   23,  -34,
        -38,   91,  116,   81,   -6,   52,    2,  -67,   83, -125,  -75,
        -45,   35,   77,  -25,   51,   68,  -92,   88,   -9,   56,  -24,
         77,   28,   66,  110,    0, -121,   15,  -29,   88,  -10,  -22,
         15,  -15,  107,   94,  -39,  -75,  -16,  -18,   19,  -34,  -42,
       -105, -103, -120,   10,   32,  -94,  111, -115,  -81,   91,  121,
         54,  115,   76,  -94,   17, -100,  -58, -103,   65,  -94,  -39,
         16,  -82,   25,   85,  -55,   73,   54,   89, -117,  -82,   -2,
        -19,   10, -108, -117,  -53,   10,  -84,  -62,  -44,   80,   18,
         -7,   29, -102,  101,   38, -116,   12,  -83,   28,   77, -105,
        -65,    9,   97,  -46,   62, -113,  -42, -115,  -35,  -24,  -97,
          7,  -53,  115,  -75,  -82, -115,  -17,    9,  -75,   -2,  -79,
        -35,  122,   -6, -112,   66,  -74,  -31,   84,   34,   27,  -56,
         11,   90,  -17,  -85,   71,   17,    8,  -56,  107,   10,  -73,
         28, -101,   21,   23,  -84,  -45,  -72,   25,  -21,   73, -121,
        117,  119,   28,   -8,  119,  -20,  -85,   -9,  -94, -127,  -68,
        -63,  -58,  -62,  -92,  118,  106,   36,  -10,   56,  -23,   -2,
         49,  -44,  -14,    7,  113,   36, -127,   72,   -3,   64,  -65,
         50, -124,  -72,  -84, -104,  112,   99,   77,  -92,  -94,  -18,
         36,  -53,   50,  104,  118,   -8,   -2,   16,  -32,  -82,   40,
        -10, -126,  -42,  -13,   33,   10,   62,  -71, -117,  -44,  -91,
        -79, -105,   42,  104,   99,   -1,  -26,   72,  -48,   33,  -93,
        -49,  -41,  -27,  -60,  -30,  116,  -87,  -11,   72,   10,   69,
        124,   90,   61,   82,   -6,  -90,   68,   91, -111,   99,  -96,
         82,  -12,   86,  100,  123,   39,  -94, -105,  122,   -3, -108,
        -70,   47,   93,  -39,  -25,    3, -119,   -9, -115,   76,  -33,
         68,  -83,   25,   -5,   21,   19,  -41,   64, -108,  -43,  -24,
        -68,  105,  112, -107,  118,   28,  118,   82,  -23,    2,   13,
         36,  -62,   96,   82, -116,   26,   47,  -50,   -2,   67,   50,
         23,  -96,   60,  -73,    5,  -59,   13,  -52,   49,  -26,  -41,
         33,  -47,  -26,  -97,   43,  -25,   75,    1, -123,   35,  -52,
        -79,   16,  -72,  127,   90,   24,  126,   93,  -26,  -56,  -60,
          0,   59,  -70,  -24,  -10,  -47,  -20,  110,   37,   27,   22,
         65, -126,  -56,   91,   -9, -100,    9,  -53,  -78,  -68, -106,
        -32,  -61,  -78,  -50,   17,    4,   15,  104,  -32, -126,   17,
        -55,  -66,  -83,  104,  -43,  -17,  -47,  -72,  -45,   83, -112,
          6,  -28, -121,   60,   -7,   58,  -92, -122,  108, -104,   76,
        -93, -107,  -35,  -96,  -70,   54,   92,    6,  127,    9,  -65,
         47,   57,  -56,   95,  -23,   89,  -16,   96,   12,   17,  102,
       -106,   98,  104,  -80, -104, -101,  -55,   15,   86,   24,   88,
        -97,   94,  -95,  -10, -115,  117,  -26,   51,    5,   98,   90,
        -95,   45,  101,   48,   71,   16,   44,   30,  -81,  -98,  -72,
       -102,   76,  120,  -27,   97, -111,  -38,  -66,   67,   44,   22,
         97,  -55,  -60, -125,  -37,   15,   48,   67, -118,    6, -102,
        -44,   33,  -72,  -67,  -87,  -79,  120, -128,   77,  -18,  -50,
         38,   25,  -17,  -15,    8,   91,   66,  -38,  -28,  104,  -16,
        -83,  102,  103,   38,  100,  -12,   -1,  -55,  -16,   63,   91,
        -85,    7,   86,  -30,  -10,  118, -124,  -84,  -47,   -4,  -91,
         42,  -20,   65,  -89, -111,   -2,  -33,   48,  -62,   90,  -48,
         11,  112,    8,  121,  107,  -14,   48,   56,  122,   74,    7,
       -103,  -13,  -16, -100,  -91, -113,  -92,   44,   82,  -12, -107,
          8,  -96,   29, -103,   67,  -20, -100,   90,   21,   75,  -41,
        -26, -116,   15,  126,  -97,   42, -108,  -61,   79,  127,   78,
        -18,   77,   60,  -14,  120,   -8,  -51,   55,   -1,  -43,   88,
       -106, -124,   84,  -73, -115,  -85,  110,   22,   60,   61,   12,
        -27,   97,  -44,  -54,  -97,   83, -126,   51,  -87,   86,  -67,
        112,   56,   91,  -90,  -21,   38,  -47,   30,  -57,    5,   97,
        108,   64,  101, -125, -124,   95,   71,  -80,  -77,   56,    3,
         71,  -38,   12, -115,   90,   90,   14,  116,  -57, -103,   63,
        -24,  -76,  -97,   -1,  -80,   24,  105,  -64,  -13,  -51,  -12,
       -100,   63,  -20,   86,  -74,   34, -102,   18,   -5,   29, -122,
         33,  -96,   45,  -69,  -21,   18, -126,   49,   -2, -105,  -89,
        -56,   35,  -64, -125,  117,    5,   49,   74,  127,   58,   19,
         65,  -25,   50,  -45,  117,  -56,   66,  -69,  -48,  -57,   47,
         92,  -18,   29,  -26,  123,  -50,  -42,  -11,  110,  -78,   92,
         20,   21,   52,  111,   69,  -48, -101, -114,   26,  -85,   58,
        -41,  105,   69,   92,  -91,   96,   49,  -27,   71,   35,    0,
         83,  102,  -40,   61,   62,   53,   -8,  -75,   89,  -87, -109,
         40,   99,    5,   75, -111,  100,   13,   66,    3,  115,  -65,
        -65,   46,   44,  -73,  111,   12,   88,  -71,  -78,   70,  -31,
        -29,  -93,    3, -116,  -37,  -16,   77,  127, -109,  -24,  119,
        109, -100,    1,   41,  -27,  100,  -34, -125,  -44, -110,   55,
        -49, -124,   -2,   87,  -57,  101,   71,   86, -120,   62,  118,
         89,  101,   42,   93,  -40, -116,  -55,  -66,  100,   10,  101,
        -55, -106,  -34,  -35, -107, -105,  -12,  -55,  -97,    9,  -44,
        -10,  111,   54,  -80,  -96,  119, -108,   30,  113,   87,   95,
         76,   82,  -21,   -6,   29,   94,  105,   42,    8,   -5,   72,
        105,  108,  -51,  -39,    8,   64, -119,  127,   43,  127,  105,
        -83,   16,  -36,   57,   36,  -70,  -66,  117,   60,  -88,  -57,
        120,   62,   -5,   96,   76,  -88,  -90,  -89,  125,  -77,  105,
         74,   46,   -6, -126,   45,  -32,   38,   40,   75, -128,  119,
         37,  -89,  -88, -102,   62,  104,    2,   77,  107,  -75,  115,
       -122,  -74, -121,   59,  -46,  -56,  -73,  -11,  119,  -88,  -89,
         28,   32,   14, -116,   40,  -68,  -76,    7,  103,   -6,   -1,
       -102,   59,   20,   13,   35,  -45,  -47,  115,  108,   28,   90,
       -109,  -50,  113,  -95,  -31,  104,  114,  -49,   -4,    1,   56,
       -102,   85,   99,  102,   -4, -112,   49,  -14,   28,   59, -122,
          3, -122,  -36,  -11,   62,   61,  -35,   84,  -54,  107,   74,
         42,  -83,  -89, -118,  -93,    2,  100,  -46,   95,  -70,   70,
         56,  -45,  -79,  -57,   53,   -7,   55,  102,   13,  -20,  -80,
         40,   46,   66,  -29,  -66,  -15, -124, -103,   62,   96,   41,
       -115,  125,  -25, -110,  127,   74,  -41,  -55,   59,   -4,  -69,
        119,   53,  126,   78,   10,   78,   78,  -69, -116,   15,  -86,
         82,  -76,   44,   -1,   87,  -87,  -74,  113,  -11,   64,  -11,
         19,   42,  -17,  -33,  -55,  -62,  -57,   41,  -56,   53,   66,
        -28, -112,   90,  101,   21,  -89,   25,   73,  -90,  -94,  -95,
         71,   43,  113,   83,  -87,   -4,  109,  -23,  -30,   -5,  105,
        -63,  -14,   33, -125,  -19,  -50,  101,   29,   11,  -36,   57,
        -94,   76,   -6,   -6,   -2,  -96,  -71,  -97,   90, -123,   32,
        -96,   45,   17,   91,  -86,   87,  -61,  -64,  -64,  -77,  -69,
       -104,   67,  -89, -112,  -80, -116,  -95,   93,  -23,  -82,  103,
          0, -128,  124,    4,  -86,    5,  -22,  113,  -79,  -94,  -73,
        -32,  -29, -125,  -96,  -60,   45,   21,   78,  -95,   72,   25,
       -124,   39, -113,  106,  -54,   76,  -48,   85, -112,  -73, -116,
       -121,  -61,  -23,  -73,  -42, -109,  -59,  105,  -89,  -58,  -56,
         74,   86,  -21,  -15,  -82,  -30,  -36,   64,  -46,   70, -119,
         47,  -75,   96,  -52,  -99,   64,  -72,   93,   74,   83,  -33,
        -67,   32,  -45,   83,  127,   79,  114, -104,   99,   11,  -51,
        -98,  -46,   39,  -41,   47,   51,  -89,  -34,    0,   26,   30,
         -3, -121,  -96, -110,  -23,   86, -104,  -32,  -46, -120,   71,
         14,  -67, -111,  -51,  -74,   13,   51, -118,    2, -122,   12,
         45,   24,  114,  -17,  -89,  -13,   20, -108,  -83,  -12,  118,
        -41,  111,  -80,   68, -113,  -46, -105,   28,   21,  -18,  -20,
        -49, -120,  -54,   43,   30, -125,   39,   33,   30,   26,  124,
        -31,  -64,  -96,  126,   63,   41, -124,  -78,  -42,  -94,   56,
        -56,   27,  -89,    7,   33,   89,  114,  127, -105,  -53,  -91,
        -48,  116,  -74,  109,  -77,   91,   92,    2,   68, -114,  -11,
         38,   35,   46,   50,  -76,  -98,  -82,    5,  106,   48,  -29,
        -96,  -41,   51,   35,   67,  -33,   48,  -41,   59,    9, -113,
         63,  -31,   70,   21,  -26,  112,   55,   50,   33,    8, -121,
        101,   67,  -70,  -43,  -79,   47, -118,   88,   42, -122,  110,
          4,   99,   82,   25,   39,   48,  -29,  107, -124,  -61,   -2,
        -64,  -33,   59,   84,  -83,  -40, -109,  -37, -121,   58,  -20,
         -5,  -45,  -12,   31,  124,  -50,  -22,  -89,   76,   -7, -112,
        -12,  -35,    4,  114,   79,  -41,  -14,  104,   58,  -25, -119,
        -65,   45,   65,   93,   75,   35,  -47,    6,   16,   91,  -51,
       -111,  -95,  -77,  -35,   33,   80,  125,  -23,   20,  -79,   81,
         12,  -70,  -54,  -91,  -41,  100, -113,  -64,   45,   -5,  -53,
        116,   92,  -88,  -98,  -39,  -44,   19,  108,  -78,   31,   39,
        -40,    8,  -80, -112,    2,  -16,  -24,   74,   80,   91,   -9,
        -83,   58,  -65,  -15,  110,  -50,  -49,   11,  -46, -115,    3,
       -110,  -37, -115,  -77,    1,  -16,   13,   -8,  -12,  -11,  -39,
        103,   42, -112,   72,  -43, -119,  -60,   47,    5,  -48,   31,
        -58,   45,    2, -111,  -58,   94,  -34,  -52,  -84,   92,  -24,
        -84,   28,   50,   16,  -15,  -79,  -49,   40,  107,  114,   79,
       -107,   19,    9,  123,   -1,  112,   69,    4,  -27,    7,  -58,
        -21,   63,   65,   74,   84,  -11,  -33,  126,  120,  -26,  -12,
        -12,   70,  -55,    8,  -51,  -55,   18,   29,  -26,   74,   76,
        -63,   66,   69,  -78,  108,  -26,  124,   63,   36,   60,    1,
         81,   53,  -58,   31,   67,  -83,  -32,  -14,  -22,  109,   62,
       -105,   37,  -33,  120,   74, -113,   75,  -93,   51,   90,  -79,
        -89,   -5,   -3,  -40,   44,   -7,   89,  -73,  -25, -114,   11,
        -65, -108,   10,   35,  126,    8,   89,   87,   35,  -43,  -63,
        -73,  -87,   44, -103,   12,  122,  -74,   25,   56,  -90,  -86,
       -127,  -81,  126,   79,   59, -119,  -33,   25,  122, -113,  102,
        -12,  -21,  -74,   48,   79,  -17,   76,  108,  -24,  -31,   27,
        -78,  -60,  -40,   70,   84, -119,  -70,  -71,  -83,   54,   88,
          2,   75,  108,  -97,  125, -117,   88,   79,   -8,   17,   86,
         91,  -64,   33,   38,   -3,   28, -105,   10,   95,   35,   86,
         89, -109,   89,  114,  -24,  -53, -117,  -11,  -18,  110,  -53,
       -114,  100,   59, -105,  -34,   78,  111, -103,  100, -112,   58,
        -41,   12,  117,  -85,   52,  -53,  -20,  -17,   81,   13,   52,
        -50,  100,   21,   50,   57,   90,   68, -111,  -92,   70,   81,
         16,   -9,  -25,  118, -126,   27,   94,   64,   26, -116,  -43,
        125,  -74,   -6,  -49,  -69,   -8,   81,  114,  -70, -117,  114,
         63, -102,   41,   92,  -13,   35,  -81,  -30,  -27,   42, -112,
         44,  -57,   30,  -78,   60,   -5,  -31,  -10,   88,   55,   -8,
         99,  -38,  -62,   79,    1,    1,  116,   40,  -75,   88,  -33,
        -33,  -63,   13,   21,    8,   61,  -87,  -44,  -97,  -15,   18,
         -7,  -12,    2,  -62, -123,   68, -116,   78,  112, -116, -120,
          6,   37,  -27,   81,   54,   20,   -5,   38,    5,   32,    4,
         93,   51,  -62,  -12,   41,   93,  -12, -105,  -69,  -92,  -56,
         94,   53,  -88,   54,  -56,  117,   70,  -48,   52,   45,   57,
        -52,   50,   -7,  -71,   99,  -40,   34,  111,  121,   81, -128,
         67,    2,   95,  -93,   19,  106,  -28, -116,   56,   25,    0,
        -13,   56,  -67,  -31,   77, -100, -118,   -4,  107,   14,  -63,
         54,  -50,   68,   -9,   87,  115,   53,  -98,  -56,  103,   75,
        -25, -116,  -13,  -89,  -20,  117,   48,  -94, -107,   58,  -84,
         -4,  -15,   91,   59,    7,   26,  -78,    9,   84,   17,   29,
         82,   56,   -4,   75,   29,   66,   90,   -1, -105,  -21,  -49,
         34, -104, -124,    6,   84,  -89,  -31,  -33,  -30,   -4,  -47,
         27,  -26,  121,  -76,   72, -100,   21,  -91,   77,  -76, -113,
         42,  -12,   37,   62, -120,  -56,  -76,   90,   12,   73,   13,
       -111,   49,  -57, -100,   46,   30,  -75,  -62,   90,  -55,  106,
        -15,   77,  -84,   38,   -7,   50,   -3, -107,  -37,   14,   12,
         79,   31,   82,   -3,  122,   22,  -22,    6,    0,   45,   33,
        104,   -1,    8,    6,   -6,  101,   90,   28,  -80,  120,  -23,
        -32,   67,  -12,   29,  109,   79,   46,   19,  103,   42, -100,
         60,  -60,  -99, -128, -117,  -48,  -73,  113,   -9,   35,   56,
         -3, -102,   26,   -9,  -75,    8,   -5,  -89,  -37,  -26,  -66,
        -74,   -7,  -97,  -85,  -29,  -90,  -27,  -58,   44,   91,  104,
         79,  -12,  -21,    5,  -51,   62,  -99,  -76,  127,   55,   24,
          6,   85,   32,  -39,   86,  -83,    8,  126,   12,  -13,   25,
        -21,  -64,  -32,   91,  -47,  -17,  112,   15, -123,   -8,   37,
        -70,   54,  -13,  -11,  -28,  -84,   -1,  -90,  -35, -107,   90,
          0,   90,  -53,   47,  120,   79,   63,  -62,  -10,   84,   84,
         65,  -16,  -67,   99,  -79,   34,  -19,   36,  -22,   74,  -50,
       -100,   28,   33,   24,   21,  -45,    3,   -6,  -17,  -59,   42,
         37,   95, -115,  -50,   91,  -87,   98,  -64,   -6,   19,   95,
         23, -128,   -6,   79,   48,   44, -120,  -79,  108,  117,   20,
        100,   20,  -66, -118,   -9,   59,  -43, -120,   75,  123,   38,
        -65,  -37,  -78,  124,  -49, -112,   80,   25,   57,   69,  -39,
        108,   -3,    4,   66,   98, -115, -104,  -90,  -17,  -15, -115,
         75,   91,  -84,  -47,   76,  106,  -52,    2,  -41,  -68,   44,
        124,  -65,  -65,   18,   -6, -105,  -57,   10,   52,  -40,  -59,
        -94,  -40,   57,  -55, -120,    0,  -25,  113,  110,  -34,  -49,
        -32,   85,  123,   35,   10,  -45,  118,   48,   53,  -48,  -99,
        101,  -75,  -99,    5,  -65,   62,  -30,  -11,   20,   62, -128,
         58,   31, -101,  107, -106,   74,   -5,  -98,   83,   75,  115,
         53, -116,  -24,   91,   69,   93,    5, -126,  -74,  -94,   87,
         55,  -62,  -39,   17,  -67,  110,  -21,  -94,   69,  112,  127,
         94, -127,  -73,   34,  -98,  117,   39,  -12,  -29, -108, -122,
        -69, -103,   29,    4,  116,   26,   89,  126,   45,  -61,   50,
         14, -105,  -31,  -46,   12,   58,  100,   40,   63,  114,  -93,
        104,  118,   58,   91,   59,  110,   -3,  -95,  -15,   93,  -51,
          0,  -47,   51, -127,   67,  -56,  118,  -86,    1,   83,  -36,
       -108,   67,   52,  -96,   15,  -51,  -13, -119,  119,  -19,   22,
        -38,   27,   78,  -29,  -57,    6,  -62,  112,  -87,  -75,  -14,
         -4,   62,  -56,   23,  121,    2,  -47, -115,  -80,   40,  -49,
        116,  -19, -126,  115,   -1,  104,   73,  -94,  116,  -83,  -15,
         87,   33,  -27,  -73,   45,   -9,  121,  -47, -113,  -62,  -49,
       -100,  -18, -119,  -82,   29,  -33,   58, -105, -126,   92,  -65,
         19,  126,   28,  -53,  -64,  107,   85, -123,  -16,   23, -124,
        -44,   71,   31,  -39,  125, -127, -118,   87,   17,  -95, -102,
         17,   12, -116,  102,   93, -126,  111,    4,  -18,   59,   75,
        -82,  127,   93,  113,   34,  -49,   75,   79,  -10,  -58,  -99,
          6,   36,  100,  -83,  -86, -114,  -94,   81,  -11,   -2,   89,
         58,  -96,  -42,   52,   90,  -91,  -78,   96, -102,   36,   99,
         26,   -9,   76,  -55,   59,  -44,  -87,  -88,   68,   61,  110,
        113, -102,  -61,  -25,   90,  122,  -32,   71,    9, -126,   19,
        -64,   64,  -64,   80,  -22,  -93,   43,   26,  -91,  -22,   -9,
       -128,   30,  -87,  -60,   76,  -47,   39,   54,   -5,  126, -113,
       -127,  -16,   66,  111,   75, -110,   14,   36,  -83,  -55,  124,
         17,  -52,  -73,  -99,  -74,  -74,  -50,  -21,   63, -117,  -56,
          9,  -79,   41,   18, -118,  -22, -110,  125,   70,   -5,  -74,
         28,   84, -123,   72,   87,   87,  -49,  -92,   39,  -70,  -60,
       -116, -107,   36,  -62,   15, -103,  -68,   45, -112,   61,   41,
         24,   -6,   96,   74,   65,   29, -102,  -62,  -99,  -37,    4,
         -4,   93,  111,  -37,  117,  -95,   59,   -6,  -99,   59,   34,
        125,  -14, -119,  108,   -4,  -35,   -2, -117,  -22,    0,  -18,
        -88,   21,   20,  -29,    9,  -69,   11,   59, -111,   67,   94,
       -113,   42,  -50,    3, -128, -117,   95,   34,  -59,   52,   41,
        -69,   19,   -2,   39,   80, -118,   -2,   96,  121,  122,  -26,
        -13,   -6,   15,   77,  -93,  -92,   92,   70,  114,  -95,  -96,
         48,  -99,   37,   61,   43,  -18,  -26,  -67,   86,   34,   65,
         69,   42,   88, -122,  -36,    5,  -23,  -73,   10,  -16,   -9,
         62,  111,  104,  118,   92,  -49,  103,  -30,   32,   92,  -37,
         79, -125,  -48,  -56,  125,   35,  -29,  -33,  -40,  -28, -100,
         98,   65,  -30,   36,  -80,   42,   27,   16,   40,  107,   91,
        109,  -33,   -8,  113,   38,   32,   67,   73,   53,   43,  -19,
        116,   -6, -110,   69, -106,  -23,   83,  -43,    6,  -23,  -38,
        -32,  -24,   84,   -8, -103,  -94,  107,   29,   66,  -57,   -7,
          7,   85,  122,   10, -116,   -5,   29,  -61,   -8,  -57, -126,
         88,   55, -122,  118,  100,  111,  -82,   91, -110,  -26,   63,
        107,  -56, -104,    3,   74, -121,    7,   71,  -16,  124,  -59,
        116,   59,    4,   19, -126,   14, -123,  -17,    4,    0,   52,
        -40, -122,   80,  124,  -62, -115,  121,  -25,  -18,   92,  -30,
         21, -113, -109, -124,  103,   60, -109,  -16,  -56,   50, -102,
        -17,   28,  -38,   54, -113,   -3,  -91,   85,  -29,   60, -110,
        -78,   40,  -55, -110,    8,  -38,  -52,  -83,   42, -100,   51,
         89,   48,  -71,  -80,   42,   40,   18,  117,  -50, -104,   60,
         88,  -26,  -82,  -47,  -83,  -73,  -79,  116,  -65,   96,   -8,
         96,  -46,  -79,   38,    5,  -71,   86,  -95,   14, -111, -113,
        121,  -65,   82,   85,  -37,  111, -118,   44,    0, -124,  -94,
          1, -125,  -52,   55,   33,   62,    4,    4,   27, -105,  -93,
        -66,   79, -119,   32,   73,   79,  -91,   29,   99,  -78, -113,
        -50,  -20,  -93,   46,  105,   37,   27,  -41,  -63,    0,    0,
        115,  -23,   77,  -10,  -68,   78, -116,  -64,   27,   43,    1,
          9,  102,  -71,  119,   91,   -1,  124,  -43,  -23,  -61,  -79,
        -43,  105,  -58,  -32, -127,  -54,   -4,   66,  110,   96,   53,
        -61,  -47,  117,  115,   96, -122,  -67,  104,  -36,  -31,   47,
        -39,  -75,  -67,  -84, -103,   19,  -78,   79,   99,  -26,  -98,
        -80,  -95,   31,   17,  -96,   69,  112,  -75,   -2,  -66,  -93,
         18,   78,  -24, -122,   19,   58,   77,  -45,  -66,   46,   62,
         80,   43,   49,   26, -118,   35, -103,   77,   89,  -94,  -95,
          5,    1,  -53,   36,  -94, -117,   85,   73,   65,   12,  -78,
        -75,  -30,    3,  115,  -83,   25,   75,  -79,   86,   -2,   -6,
         34,  -51,  -69,  -93,   48,   37,  -38,  -78,  -96,   -1,   -2,
         -2, -119,   50,  -47,   48,  114,   46,  -61,  -62,  -92,   93,
          4,  -15,   55,  -98,   17,  104,  -78,  116,  115,   28,   87,
        119,  -62,  -55,   34,  124,  -75, -119,   35,   32,  104,  -28,
         47,  -66,   84,  125, -119,   65,   86,   55,  -26,   59,  106,
         -2,  108, -120,  125,  -78,  -38, -118,   52,  -48,   27,   55,
       -100,  -14,   63,   12, -126,   87,   36,  -84,  -72,   -4,   14,
         97,   -7,   62,  -86,   71,   63,  100,   -6,   -4,   27,  -62,
        119,   63,   37,  100,   12,  -10,  -86,  -56,   28,  -81,  121,
         25,   32,  -68,    6,   57,  -47,  -48,  -10,  -94,  113, -111,
         39,  -10,   23,  -61,  -13,  -26,  -89,   31,   -1,   99,  126,
         65,  -15,   49, -120,   -9,   70,   67,   28,   70,  -78,  -71,
         36,   74, -109,   59,   18,  -67,   -8,  -65,    7,   96,   99,
        -60, -107,  -84,   67,   77,   18,  -25,   -8, -120,  -21,   83,
         49,  107,    2,  111,  -79,  -90,   45,  -19,  111,   10,   61,
       -116,  -91,   71,  -65,  -25,   78,   59,  126,  121, -119, -112,
         46,   70, -127,   37,  -56,    1,  -91,   14,  -93,  -85,  110,
        -63,  -90,  -93,   39,  -50,   45,   15,  -38,   35,  -43, -108,
        -48,   43, -105,  -33,  101,  -98,   -5,  -10,  100,   -3,   18,
        119,  106,   13,  -11,   11,  -31,    0, -128,  -29,   68,   82,
        -14,  -93,    6,   -1, -124,  115, -115,   26,   58,  -78,   71,
         74,   27,  -42, -115,   -6,   59,  105,   34,   78,  -98,  118,
       -128, -114,   45,  -35,   58,  108,   -9,  -21,  -62,  -91,  -88,
       -109,  -53,  100, -118, -121,   72,   29, -125,   81,   -2,    4,
        -38, -102,   71,  -54,   14,  103,    0,  -92,  -85,  -50, -117,
         97,   86,  -45,  -38,  -84,  -45,   -5,   93,  -57,   95,   90,
         -8,  -49,   80,  108,   63,  124,   64,  -61,   71,   38,  -41,
        -53,  -79, -128,  -30,  -70,  -37,   46,   88,   88,   54,   45,
        -32,   36,  -15,   61,  -75,   63,  117, -100, -116,   34,   12,
        -73, -123,  -20,  -81,  -48, -119,   84,  -77,  -78,  101,  101,
         40,   29,   49,  119, -100,   -2,  118,   34,  -22,   46,   15,
         93,   48,  112,    5,   -9, -111,  102,  -42,  -16,   80,   41,
        -58,  -74,  -53,   -6,  -60,   24,   55,   79,   35, -105,  -67,
        -95,   66,    8,  114,   -7,   63,   60,  102,   37, -104,  -79,
        -19,  -15,   -4,  -96,  120,    5,  126,   56,   98,   81,   95,
        -46,   59,   68,   34,   22,  100,   10,   47,  -12, -110,   83,
         27,  -32,   44,   94,  -31,  -40,  -88,  -62,   92,   67,  -58,
         -8,   75,  -23,  -48,  -40,  -42,  -42,  -76,   55,  -14,  -13,
         70,  117,    2, -125,   14,  -55,   53,  -77,  102,   14,  -87,
        -81,   94,   46,  -12,    9, -110,  -25,   19,  125,   66,  -30,
       -106,  -30,  -32, -112,   50,   19,  105,  -14,  -59, -122,   19,
        -71,  -59,   83,  -92,  -87,   65,  114,  -53,   32,   -5,  -19,
         31,  -51,  122,  -12,  -45,    1,   44,  -42,  -15,  -26,   81,
        111,  -63,  -27,  -65,  -63,   55,   79,  -62,    5, -103,  -64,
       -102,   98,  108,  110,    6,   97,  -56,   26,   36,   47,   68,
         19, -123,   76,    2,  -22,   81, -120,   67,  -73,  -64,   45,
        -84,  -86,    8,    6, -125,    4,   80, -126,  -27,   99,   34,
         31,  -38,  119,  -53,  -39,  104,   58,  126,  -24,  125, -101,
        120, -102, -105,   -1, -112,  -44, -104,  -63,  -14,   42,   51,
        -21,  115,  115,    4,   -1,  110, -111,  -82,  -99,  -77,    4,
         13,   32, -113,   25,   20,  -28, -113,  123,  -44,   44,  -30,
         52,    5,  -46,    8,   23,   -1,  127,   83,   33,  104,  -11,
         40,  -15,  -55,  -88,  -85,  -99,   92,  -20,  125,   51,  -90,
        120,   46,    8,   70,  108,   87,   79,  -16,  -60, -124,   62,
       -128,   88,  121,  -58,   55,   93,  -16,  -96,  -34,  -29,   92,
        -60,  -43,    8,   92,   21,   -5,  -72,   44,   46,    9,   33,
         48,   61,  -61,  124, -120,  -48,   95, -127,   13,  -53,  113,
        -10,  -81,  -23,  -33,  -59,   87,  -85,   85,   94,   70,  -20,
          2, -115,  -45,   66,  113,  -97,  -25,    7,  102,   88,   -6,
        -18,  -67, -100,  -78,  -38,  113,  -60,  -81,   12,  108,  116,
        -95, -116,  -87,   68,  -72,  -51,    0,   54,   88,  119,   -6,
         28,  -79,  -32,  116,   81,  -23,   75,  -47,  -37,   10,   39,
        -12,  -72,  -33,   26,  -85, -117,  -11,   -3,   16, -118,    1,
        -41, -118,  -78,  -46,  -48,   73,  -34,  -69,  -59,  -23,  -71,
       -110,   53,   69,    3,  -96,  -76,   98,  -37,    8,  118,  109,
        -52,  -39,   39,   57,   44,   72,   76,  113,   40,  -80,  -77,
         59, -103,   78,   -9,  -58,   18, -108,   -9,  102,  -60,  -81,
        101,  -82,   74,   68,  -70,  -78,   37,  -12,  -82,  -31,  -24,
         42,  -46,  -68,  -75,   88, -119, -111,  -20,  -39,   -9,   41,
        -27,   26,   57,  118,  -80,   85,  -31,   11,  -54,  -58,    2,
        116, -111,  -33,   86,   24,   43, -110,   90, -126,   59,   54,
          4,   -1,   -3,  -96,   55,   82,  -20,   56,   36,  117,   40,
         56, -120,   52,   30,   29,  -70,  -84,   33,   63,  -61,    5,
         -1,  -40,   86, -120,  -89,  -70,  -10,   48,    3,   54,   86,
        -85,  -47,   57,  120,   15,  -35,  -95,  101,  -65,   82, -114,
       -119,  -64,  -82, -118,  106,   76,   74,   -5, -110,   -5,   46,
        -23,   15,  -23,   16, -112,    2,   81,   -3,  107,   50,    4,
       -122,  105,  -91,  -28,  -25,  -45,   89,    6, -101,  102,   30,
        -44,    6, -126,   -4,   49,  -12,  -64,  -80,  -28,   -3,   77,
          8,  -16,   18,    4,  118,   25,  110, -101, -128,   74, -121,
        -32,   23,   18,  -25, -102, -112,  -11,  -12,   -8, -127,   65,
        104,  -73,  -83,   70,   74,  -38,   23,   69,   73,   96,   50,
        -34,   76,  -88, -104, -128,   28,   15,    1,  -18,   31,  109,
         74,  -30,   23,  -74,  -88,  -82,  -48, -111,  121,   43,   97,
        121,   45,  -79,  -92,   30,   -5,  -89,   17,  -22,   86,  -39,
          4,  -57,    5,  -37,  -81,   80,   57,  -95,   -7,   -2,  -42,
        -77,  -37,  -59,  -41, -106,  -46, -120,  -17,    0,  -68,    4,
       -124,  114, -116,  110, -121,  -78,    9,   25,   48, -127,  -55,
        -22,  -66,   21,  101,   76,  111,   85,   -6, -120, -121,  117,
         35,  -96,  -48,   59,   -8,   57,  -19,  -38,   24,  116,  -34,
         -7,   53,   85,   24,   89, -110,   83,  -42,   96, -104,   71,
        105,   -5,   82,   20,  109, -103,  111,  -21,  108,  -37,  -51,
         62,  -62,    1,   63,  100,  -86,  -77, -117,  -23,   21,   15,
       -103,   81,  -74,  -93,   68,  -72,  123,  -42,   43,   27, -108,
        -76,   44, -102,  -49,  -57,   93,   36,   12,  -81,   18,   62,
        -22,  -78,   93,  -34,   -9,   15,  -46,   74,  102,   78,  -91,
        126,  -52,  -49,  -58,  -14,   58,  -29, -116, -108,  -31,    8,
        -16,   22,  -15,   16,   46,   -8,   18,  109,  -91,  -10,   42,
         17,   86,  -92,  -34,  -86, -111,   42,   16,   16,  -80,  -12,
       -121,  -47,  -12,  -45, -125,  -94,   90,   78,   97,   28, -119,
        113,   83,  122,  -19,  -85,   -4,   40,  -69,   84,   67, -115,
         77,   69,  -36,   30,   24,  -72,  -44,   -7,  -99,   63,  -35,
        -40,  -56,   50,  -66,  -59,   49, -102,   36,   -6,   22,  -55,
         -2,  -48, -108,    5,   65, -114,  -94,   24, -121,   29,   -9,
         54,  -78,  -14,   79,  -41, -110,   10,   26,  -47,   27,   87,
        -92,  -48,  100,  104, -100,  -50,  111,  -86,  -42,   -4,    3,
         35,  -62,  -51,   76,   75,  -52,  -88,  120,   72,  -72,   79,
        -52,   53,   20,   -4,  -80,   16,  107,   86,   17,  119,   10,
        -90, -116,  -11,   41,  -99,   90,  -38,  -29,  -86,    5,  108,
        -53, -127,   84,   29, -102,  -88,   96,   82,   59,   30,   61,
        -51, -110,   30, -119,  105,    9,  -17,  122,  110,    5,  -24,
       -103,  -21,   62,  -93, -104,  101,  -31,   40,    2,   -6,  -29,
       -116,   44,  -17,  127,  -35,  118,   18,   77,   21,  -81,  -83,
         90,   48,    5,  -19,   40,  126,   76,   83, -104,   27,   64,
        -74,   54,  -77,  125,  -99,  -25,  -43,   29,   47, -100,  -34,
         57,   -4,   52,   -2,   63,    1,  126,  -30,  -56,  -92,   64,
       -103,  -93,  -92,   86,  111,  104,  -76,  -60, -112,   86,   20,
         47,   31,  -91,  -28, -120,   -2,  -75,   77,   -1,  -98, -123,
         54,   48,  -40,   13,   45,  120,  120,   37,  -73,   95,  -81,
        -95,   83,   31,   93,   68,   23,  109,   19, -112,   -6,  -45,
         77, -102,  109,   43,   -3,   43,   62, -110,  -53,  115,   94,
       -125,  -57,   73,  -70,  107,   -1,  -37,  106,  119,  -67,  -87,
        -16, -102,   54,  -98,   94,  -64,   13,  -99,  109,  100,   43,
       -122,   65,   79, -101,  104,  -38,  -99,  -80,  121,  -47,   48,
        -83, -128,   68,    5, -101, -124,    2,  -53,  -58, -102,  -53,
         91,  -20, -119,  -23,   44,  -61, -104,   69,   54,  -45,  126,
         63,   17,  -67,  -63, -117,   68,  -35,  -33, -127,   33,   39,
         27,  -28, -107,  113,  107,  -83,   54, -123,  -46,   67,   -7,
        -16,  -29, -108,  -15,   39,   67, -116,   44,  -96,  -91,   42,
         33,  -44, -110,  -86,   14,   94,  -53, -101,   50,   69,  111,
        114,   67,   77,   67,  110,  105,   53,   92, -115,  -37,  -90,
         18,  -68,  107,   -6,  -14,  -67,   31,   82,  101,   60,  -66,
        -51,   91,  -56,  -58,  -21,  -13,  -69,   85,  -23,   12,  -57,
        -84,  -68,   68,  107,   52,   15,  -61,   83, -128,   63,   34,
        126,  -69,  -12,   65,  -40,   10,  -43,  -77,   28,   -8,  100,
         41,  -49,  -79,   82,   -7,    5,   47, -105,  -95,  -96,  -40,
       -101,  107,  -10,    6,   39,   51,  -71, -126,   46,  -90,  -76,
       -127,  -56,  -33,    1,  106,  -64,   11, -105,  -40,   47,  -61,
        -98, -107, -128,  -90,    6,  104,  121,  125,  118,  -45,   -5,
         39,   72,   81,  -23,  -62,  101,   65,   62,  -82,  -46,  -97,
        111,  -98, -126,   67,   39,  -66,   57,   -7,  -41,   52,  -46,
        102,   92,    8,   56,   66, -113,  -84,  111,   -5,   21,  -11,
       -128,   66,   77, -119,    4,   24,  -90,   38,   16,  117,   -8,
       -123, -109,  -68,  -81,  101,  110,   75,  -85,   31,  -94,  -95,
        -88,   72,  -27,   19, -111,  117,  -50,  -39,  -31,   62,  112,
         -1,  -99,  112,   30,  -23,   46,  -75,   34,  116,  -78,   79,
        -46,  -48,  -54,   60,  113,  -62,    6,   78, -106,   67,   57,
         24, -112,  -38,   72,   48,   72, -116,  -40,   71,   97,   17,
        -51,   73,  -19,   17,  -91,  100,  -20,  -57, -108,   90,  -98,
         -6,  -82,  103,    3,   77,  -79,  -48,   11,   53,   -6, -102,
         85,   36,   59,   37,   25,  116,   52,   33,   73,  118,  -17,
       -120,  -63,   74,  126,  -79,   70,   67,  122,  -32,  -27,  108,
        107,  -57, -105,  126,   10, -127,  106,   -6,   59,  125,  -44,
       -111,  -55,  -34,   76,  -47,  109,  -10,   44,  -27,  -26, -125,
        -14,  -20,  -46,  -85,   57,  -15,  -83,   10,   99,  116,  104,
         57,   91,  -68,   39,   -1,  -59,  -96,   24,  -46, -121,   72,
        116,  -26,  -91,  -61,   35,   56,   40,  -61,    4,  -41, -107,
         -1,   11,   47,  -69,  106, -124,  -82,  109,   40,  114,  -32,
         45,  -36,   66, -116,  -77,  -77,   45,  -58,   42,   13,  100,
       -112,  118,   40, -128,   27,   49,   35, -105,  -25,   14,    5,
         44, -125,  -14,  104, -113,  -36,    0,   83,   59,   72,   17,
         85,    0,  -20,  -90,   49, -114,  124,  103,  -55,  -49,   80,
         50,  -81, -109, -116, -100,  -54,   34,   43,  -54,   34,   25,
        126,   29,  -60,   41,  -42,    3,   39,   20,   38,   37,   62,
         89,  -45,  -97,  -89,   41,  -87,  110,  -24,  105,   24,   44,
        113,  -50,   49,   18, -116,  -48,  -97, -113,  116,   92, -122,
       -119,  -62, -111,   14,  105,  108,   46,   56,   25,   39,  -97,
        -14,  120,   42, -115,  -11,  -26,  -79,   96, -124,  -12,   51,
        123,  -56,   -5, -119,   61,  -38,   43, -102, -100,  -74,   38,
        -73,  -23,   55,   26,  109,  -94,  -27,   24,   74,  114, -103,
       -110,   76,  -49,  -82,  -22, -104,  111,  -96, -116,  -67,  -69,
          2, -101,  115,   93,  -38,  106,  109,  -66,  -17,   37,   98,
        -86,  -87,   56,  -20,   90,  -22,   15,  -55, -105,  -51,   69,
        -71,  -12, -102, -111,   -3,  -73,   37,   -4,   24,    2,  -69,
        -39,  -65,  -18,  -83, -121,  -54,   97,  120,   25,  -96, -117,
         64,  -92,   52,  -23,  -84,   58,   71,  -36,  -51,  -80,    7,
       -103,  105,   96,  109,  -68, -102,  121,   96,   64,  -18,   36,
        -33, -120,   32,   77,   61,  -15,   49,    5,   38,  116,  -13,
         24,   34,   66,  -40, -117,  100,  -19,   -6,  -16,  -31,   82,
         39,  -41,   33, -118,   41,  -26, -112,   -7,   86,   30,   -3,
        -25,   59,  -88,   25,   76,   97,   15,   93, -116,  -11, -120,
         53,  -62,   68,   94, -122,   32,  -61,    5,   -8,   56,  -61,
       -124,  -47,  127, -124, -100,  -62,  -28,   52, -126,   31,   86,
          7,  -65,   -7,   67, -116,  -55,   -3,   64,  111,   69,  -79,
       -110,  -68,  100,  -19,  109,   91,  120,   14,  -47,   62,  -75,
         43,   74,  -74,  -80, -103,   76,  -67,  120,  115,  -89,    2,
         97,   24,  -67,   84,   74,  -28, -122,   43,  -46,  -98,  -33,
        117,  -76,   88,  -49,  107,   11,   66,  120,  -60, -127,  -16,
       -115,  -11, -123,   16,  106,  -89,  -54,  -76,  -44,  -87,   54,
         -3,  108, -107,  123,   59,  100,  -54,   16,   67, -109,  -24,
        121,  -14,   10,   38,   21,  125,  -27,  -96,  123,    5,   46,
         41, -101,  -20,  -14,  -17,  -90,  120,  -94,  -89,  -63,  -42,
         36,   23,    7,  118, -103,    9,   94,   39, -122,   60,  -27,
         68,  -67,  -50,  -11,  -23, -101,  -75,  -45, -121,   57,  122,
         89,   -6, -113,  -86,   90,  -25,   73,   95,  -73,   48, -122,
        -35, -118, -124,   30,    2,   65,   67,  -88,  -99, -104,  -51,
        -10,  -44,  -91, -123,   27,  -82,  -45,   50,  -11,   33, -117,
        112,  -54,   30,   35,  -67,   34,   29,    4,   -3,   83,  -61,
         86,  -77,  -57,   97,    8,    2,  107,  -37, -106,  102,   81,
       -117,  100, -127,  -72,   34,   24,   61,   12, -122,  116,   96,
         16,    1,   32,  107,  117,    1,  -22, -122,  -91, -118,   15,
       -122,  -45,  122,   -4,   17,   31,  -61,  -47, -123,   81,  -77,
         -1,  -23,  -89,  -44,  -72,   35,  108,  -52,  -72,    4,   98,
        -38,   14,  -38,   -9,  -95,   13,   93,  -34,   23,  -71,  -18,
         -9,  -75,    9,   48,   37,   84,   29,   76,  -57,  -89,  109,
       -113,  -51,   64,   79,  -31,   36,   87,  -51,  -44,   42,  -26,
        -17,  -89,  -47, -103,   40,  -20,   80,   91,   54,  -19,   18,
         65,  -28,  -30, -119,   68,  -26,  112,  124,   28,   91, -118,
         20,   96,  -90, -120,  -77,  116,  -89,   76,   59,   51,   29,
        -60,  -16,   87,   38, -116,  109,   14,  -65,   70,   37,  -59,
         -2,  -44,  -90,  -70,  -65,   79, -107,  -88,  -33,   70,  -58,
        -35,  -88,  -31,   72,   72,   65,   43, -126,  114,   91,   81,
         63,   24,  117,  -54, -123,  -78,   17,   62,   34,    7,  -59,
        -22,  -21,    9, -127,   55,   50,   45,   56,   34,   25,   78,
        -83,  126, -104,  -21,  -49,   34,   99,   45,  -50,   83,  -95,
         61,   97, -109,  -45,  -12, -113,  -41,   98,   47,  -40,   47,
         54,  127,   57,   10, -105,   63, -111,  -17,  122,  113,  -98,
        -35, -110,  -51, -123,  -20, -112,  -70,   70,  -82,   74,  -51,
        108,  118,   34,  124,  -35,   -9,  -99,  -15,   36,  -40, -112,
        117,  101, -104,  -51,   93,   64,   88,   66,  -84,   99,  102,
         12,  105,  -88,   28,  -59,   62,  -45,  -19, -125,   79,   83,
       -113,   94,  -73, -122,   18, -125,   94,  -79, -117,  -93,   77,
        -17,  108,  -29,    8,  -20,   10,   24,  -99,  112,  111,   78,
         20,   67,   97,   84,    2,   42,  104,   12,  105,  -98,   40,
         12,   97,  -48,  -78,  -50,  -94, -119,  -67,   82,   80, -101,
       -122,  102,   49,  -86, -117, -127,  -23,   46,   87,  -88, -126,
         75,  -19,   87,  -30,  -94,   31,   31,  -35,  -13, -115,   97,
         98,  100, -115,  125,   25,   44,   96,   10,  -38,  114,   75,
       -118,   55, -126,   58, -118,  -11,   96,   15,   -8,  103,  124,
       -128,  -91,   14,  -69,  -35,   -3,   94,   57,   83,  -35,  106,
        -72,  -79,   14,   88,   55,   47,   22,   90,   36,  110,  -59,
        -97,   85,   34,  105,    7,   48, -112, -107,  -93,   98,   77,
        -14,   23,  -83,  -10,   18,  -59,   30,  -30,  115, -111,   85,
        -13,   50,   53,  -98, -100,   63,   22,  -27,  101,   46,   18,
        -78,   73,  114,   75,   -4,  -11,   49,  -16, -112,  111,   44,
        105,  104,   52,  111,  113, -109,  -16,  -14,   74,  -52,  -84,
        108,   31,  -57,  -34,  -55,   31,  -58,  -22,  -24,   -8,   40,
         31,   15,    9,  -71, -120,   91,   24,  -31,  -17, -103,  -14,
        -74,  -98,  125,    5,  116,  -44, -107,  -27,   75,   -9,   82,
        113,   75,  115,   25,   54,   44,  -19,  -11,  -84,    7,   40,
         -6,   89,  -89, -114,   69,   75,  -18,  -83,   37,   76,   93,
        -80,   -2,  -84,   92,  -72, -108,   93,   92,   42,  122,  -19,
        -74,  -28,   -1,   71,  -70,  113, -122,  105,   75,   68,   19,
         12,   18,   59,   25,  -57,  -90,   37, -106,  -16,  -31,  110,
        -16,  125,    3, -101,   81,  -62,  -53,  -40,   23,    3,   62,
        -27,  -75,   67, -128,  119, -111,    6,  -43,  -10,   46,  -36,
        107,   58,  118, -105,   32,  107,   92,   54,  -15,   84,  -93,
         84,   14,  121,   74,   43,  122,   35,   73,   -9, -123,  122,
         66,  -50,   -9,   88,  -59,  -98,  -47,   50, -125,   35,   93,
         41,    9,  -86,  -91,  102,    7,  126, -119,  -84,  119,   62,
        -15,  -33,  -21,   17,   85,  -59,  101,   81,  118,  110,   68,
        -85,   82,  -53,  -53,  -83,  113,   -4,   33,   96,  -93,   81,
         55,  114,  -33,  -11,  120,  -75,  105,   91, -101,  124,  -20,
        -67,  -81,  -47,   78,   69,   28,  -41,  -59,  -50,   99,   32,
         23,   63,  118,   68,   13,   29,   83,   93,  -60,  -59,   35,
         34,   72,  -88,   52, -128,   42,   78,   12,   -3, -126, -112,
        -12,   41,  -23,  121,  -55,  118,  -32,   15,  -36,   11,  -40,
        -18,   99,  -62,  -65,   54, -111,   91,  -27,   53,   76,   18,
        -49,   48,   90,  -11,  114,   89,  121,    1,  -89,  -32,  -31,
         -3,   -4,  127,  109,  -91, -126,   64,   76,  -25,  -92,  -71,
       -103,  104,   74,  -45,   44,  -88,   27,  -35,  -51,  -17,  -43,
         -8,  -11,   78,    0,   29,   83,   13,   65,   87,  -24,   63,
        -31,    2,   24,   82,  -51,    6,    9,   68,  124,  -22,  101,
        -99,   83,   43, -127,   14,   90,  -24, -107,  123,   20,   30,
         81,  -83,   17, -120,   93,  103,  -22, -112,  -61,  122,   70,
        117, -126,  -81,   18, -117,   18,  -31,  -22,  -38,  -69, -116,
       -115,   18,  114,  -45,  -10,   70,   26,   91,  -92,  -35, -112,
        -81,   -8, -125,   -1, -121,  113,   -1,   -7, -110,  -27,   51,
        -94,   66,   54,   53,  117,  116,   44,  120,  -13,  -16, -104,
         87,   37,  -54,   81,  -13,  -67,   44,  -92,  -44,  -58,  119,
        -99,   76,  111, -122,   30,  103,  -43,   41,   87,  105,   50,
        101, -109,    9,    7,   74,  -49,  124,  -55,  115, -125,  -96,
          1, -109,  -67, -120,   72,  -73,   23, -125,  -14,  -90,  -66,
         36,   74,   96,   58,  -36,  -57,   11,   22,  -11,   48,   69,
        -21,   10,  -18, -100,   36,   56, -120,   70,  123,  -51,  -67,
         22,   39,  -47,    4,   24,  -72,   48,  -99,    1,  -26,   87,
         92,  -11,   18,  -70,   13, -100,   -1, -128,   46,   38,  103,
         62,  -63,  -36, -122,  -97,  113,  -59,   44,   99, -101,   -6,
         91,  -10,  -68,  116,  103,  127,  -48, -128,  -73,   44,   28,
         97,   51,   29,  100,   -1,  -17,  -12,   63,   83,  -56,   90,
        -72,  -30,   64,   -4,   13,   -7,   32,   38,   80,   12,  127,
         12,    1,  -40,   30,  112,   51,  -44,   -9,   69, -104,  -30,
       -126,  101,  104,  -20, -103,    4,   18,  -80, -100,   51,   -7,
        103,   22, -107,   10,  104,  -57,  116,  -37,   28,  -84,   99,
         -3,  -50,   29,  -57,  -95,    9,    2,  -44,   66,  124,  -88,
        -86,  -14,   90, -105,   46,   87,  -73,  -84,   -9,  -76,   22,
        106,  100,  108,  -64,  -94,   43,  -42,  -68,  -91,  102,   83,
         80,  104,  -77,    1,   61,   59,  125,   74,   89,   19,  -88,
        -92,  -94, -100,  -60,   87,   94,  110,   91,  -98, -111,   77,
       -120, -113, -120,  -54,  -71, -104,   12,   80,  111,  100,   23,
         12,   34,  -86,   -5,   76,  -24, -100,   68,  127, -119,  -90,
         44,  107,  -39,   84,  -43,   -1,  103,   88,   95,   -4,  -23,
        -94,  125,   -5,  116,   -7,  -18,   97,  -49,   16,   31,   93,
        -79, -122,   93,  -57,   94,   23,  -98,  119,   99,  -34,  -70,
        116,   99,  -15,   48, -119,   75,    7, -126,   -6,  104,   39,
        -35,  -36,   82,  -76,  -82,  -40,   62,    7,   89,  -64,   63,
        -94,  113,   30,   75,  -38,  -78,  -63,   89,  -49,   53,   18,
        -45,  -31,   49,  -40,   80,   23,  -89,   12,   40,  -97,  125,
        -69,   -8,   50,  -54, -107, -121,  -95,   25,   85,   49, -101,
        -61,  -15, -123,  -40,  -71,  -39,  -90,  -32,   29,   39,   64,
        112,   25,  -25,    5, -124,  -74, -100, -120, -100,  123,   40,
       -118,   47,   28,  -64, -105,  -51,  -65,    9,    6,  -32,   96,
        -68,  -13,   79,  122,   50,  -96,   49,  -88,   33,   51, -125,
        -69, -123,   59,  107,    1,  -10,  -17,  -57,  -99,   26, -125,
        -75,  -67,  -39,  101,  127, -111,  -63,   20, -109,  -68,  -76,
          7,   -8,  -28,  124,   10,  -71, -128, -127,  -86,   53,  117,
        -94,  -87, -109,   36,  116,   80, -118,   51, -119,  -73, -102,
         16,   89,   35,   -8,  116,  -93,   32,  -35,  102,    4,  -35,
        -91,    3,   46,   46,   33,  -31,   49,  -58,  -60,  -95,   -5,
         27,  -27,  -83,   50,   60,  -47,  107,   36,   -6,  102,  -62,
         92,  -75, -100, -118,   51, -121,  101,  -94,   75, -102,   42,
        -99,   34,   14,   86,  -30,  -35, -101,  -76,  -66,    2,   97,
         64,  -47,  -19,   83, -103,   20,   56, -118,  116,  -96, -113,
        -51, -105,  -30,   28,   66,   32,   27,  -50,  -17,   54,   38,
         94,  -52,   42, -121,  107,   21, -116,  124,   95, -124,  127,
        125, -128,   17, -120, -102,   16,   15,  121,  -87,   63,   84,
       -123, -102,  -18,  -40,  -59,  -99,   97,   75,  -41,  -24,  -76,
        -33, -114,   51,  -25,  -26,  -35,  -64,  120,   66,  -72,   57,
         31,  -87,   -7,   89,   91, -127,   52, -128,  -80,  -80,  -83,
        -42,   15,   89,   42,  -22,   55,  -85,   86,  114,  -12,  -17,
        -94,   41,  -32,  -83,    5,  -73,  -76,   97,  107,   24,   24,
         64,  -86,  126,  -19,   55,  -26,  -78,  -84,  -65,  -91,  -99,
        111,  -24,   29,  -80,   97,  113,   11,  -69,  105,  -15,  -99,
        -47,   31,   18,   65,   41,   25,  120,  -41,  121,   33,   90,
         86,  -97,  -16,   19,   25,   23,   32, -124,   91,   63,   58,
         38, -104,   -5,  -72,  -75,  -92,   32,  -39,   55,  -37,  116,
        -60,   27,   53,  -74,  -10,  -32, -117,   37,   96,   18,  -37,
         89,   72,  -29,  -20,   26,   56,  -57,  -29,   17,   39,   99,
        -66,   40,   77,  -44,  -70,   41,   70,   36, -113,  -50,   27,
        -78,   43,  -37,  -96,  -48,   72, -107,   -7,  -10,  -47,  -64,
        -28,  -95,  -77,  -40,  -69,   57,  -57,   12,  -69,    4,   85,
        -57,  111,   32,  -92,  -34,   -9,  104,  -34, -104,  108, -120,
       -106,  101,  -30,   11,  -92,  -40,   85,  116,  -54,  -16,    5,
        -22,   24,  -53,  -35, -123,   47,  -22,  -33,   67,  -33,  -77,
        -90,  119, -100,  -94, -125,  -56,  114,  113,   74,   38,   42,
        -10,   59, -123,   14,   74,  -57,  -60,  -15,  -63,  -48,   -7,
         89,   54,   27,   -6,   34,  110,   32,   -2,    0,  -10,   21,
        -35,   27,   76,  -66,  124,  -99,  -96,   90,  -67,  117,  -95,
         50,  -79,   64,  -81,   30,   58,   62,  -74,   76,  -51,   55,
        -86,  -91,   67,  -66,  -61,  120,  -73,   48,   85,  102,  101,
        -30, -128,   68,  110, -107,   60,  -65,  -97,   36,   58,   85,
        -87,   -6,  101,  -31,  -83,  -45,  -12,   29,  -88,   71,  -79,
        -84,   57,  -18,   80,  -67,   86,  -55, -102,   55,  123,   77,
         35, -115,   -4,  -97,    9,  -57,  124,  -18,   -7,   97,  -25,
        -25, -107,   82,  -51,  -80,   75, -123,   28,  -19, -127,  -24,
       -112,  105, -123,  102,  -50,  104, -127,  108, -125,   62,  -89,
        123,   31,   42,   20,  -58,  -78,   82,  -39,   -3,   -5,   62,
          2,   68,   60,  -85,   67, -123,  -64,  -77,  119,  -74,  -38,
        -68,   94,   77,   -7, -106,  122,   98,  -93,   -1,   73, -125,
        -69,  -52,  103,  114,  -34,  -94,   74,  106,  121,   68,  -72,
        -69,  -54,  -88,  -91,   37,  -41,  -83,  -27,  -33, -108,   67,
       -109,   52,   62,  -69,  -48,   40,  -34,  -62,   14,  111,   42,
       -103,   89,  -20,   75,  108, -103,   92,   75,   78, -101,  -82,
        -76,  -84,   15,   47,   50,  -37,  -31, -113,   85,  102,  -81,
        -40,   83,  -24,   16,  -69,   12,  -68,  -36,  119,  -80,    7,
        -16, -128,  -28,  -26,  -71,   94,  -29,   48,  118,   46,   55,
        106,   52,  121,  -98,  -10,  -21, -107,   33,  -30,  103,   49,
         29,   -3,    9,  -97, -117,   15,  -88,  -73,  109,   37,   98,
        115,  123,  122,  -17,  -58,   34,   68, -116,   33,  -79,   42,
         91,   49,  -95,   81,  -60,   -1,  -54,  -63, -113,  100,   17,
       -105,  -57,  -25,   15,   98,   97,   20,   81,  -56,   44, -125,
       -117,  111, -102,   43,  -15,  -39,  -65,  -35, -108,  120,  -12,
        -61,   51,   25,  -56,   -4,  -27,   -6,   43,  -60,  111,  -62,
          7,  -41,  -12,  -80,   59,  -15,  -70,   89,  -49,  125,   -1,
         50,  -12,   92,   53,  -72,  -24,  -91,  -52,  -50, -104,  -99,
        -77,   12,  103, -109,  -50,  118,  -90,   23,  102,   56, -108,
        -61,   92,  104,  -55,  -51,   75,   67,  115,   63,  -23,  -93,
        -15,    8,   92,  109, -105,   78,   38,   77, -110,  -65,   -3,
        -59,  -80,  119,  -60,   29,   -5,  -54,   51,  -69,  -71,    6,
         60,  105,  100,   20,  113,  -70, -116,   56,   44,   70,   -4,
         -7,   71,   39,   74,  105,  -26,   98,   47,   -4,   26,   12,
         73,  -67,  -77, -119,    4,   41,  -80,  -66,   77,   -8,   38,
         91,  -28,    1,  -79,   35,   67,   64,    9, -122,   87,   -8,
        -22,   27,  -97,   59,  -26,   51,   -3,   22,  123,   27, -115,
        -68,   46,   -5,   40,   84,  -61,  -27,  113,   -5,   95,   81,
        -42,   92,  114,  -14, -119,  -29,   -1,  -82,  -89,  -86,   37,
        120,   36, -105,   85,   -2,  -35,    9,  -42,  108,  -29,   30,
         76,   50,  -83, -116,   66,  -10,  118,   84,  125,  -30,  -81,
        -10,   82,  -10,   71,  -19,   46,   59,  -38,  102,  -88,  -44,
        -59,    7,   56,   51,  -67,  -43,  109,  -88,  -98,  -56,   86,
         90,   32,   61,   52,   24,    1,  -36,  -82,  114,  -67,  -20,
         16,  118,  -57,  -88,   44,  -18,   46,  -61,  -68,   -4,   -5,
        -47,  -35,  -59,   53,  121,   53,   33,    5,   68,  -96,  105,
         78, -109,  114,  -60,  113, -104,  -36,   56,   51,  -79,   99,
        -18,  -22,  105,  -11,  120,    5,  119,   37,   90,   59,  -74,
        -86,  -81,   13,   83,   -4,   62,  -66,  -65, -107,  -53,   63,
        -45, -120,  -28,   95,  121,   53,   43,   25, -122,  -41,  -25,
         90,   71,  -52,   79, -109,  -70,  104,   79,  -62,   24,   29,
       -118,  108,  -45,  -83,   77,  114,    5,  124,   29, -125, -124,
         43,   83,  101,  -20, -117,  -36, -122,  -39,  101,  -27, -122,
         59, -128,  101,   24,   61,  -43,   96, -102,   30,   83,   40,
         -9, -110,  -46,  -11,  -12,   10,   36,   47,  117,  107,  115,
        -99, -118,    1,  104,   -3,  -58, -123, -101,   64,   25,  -97,
        -85,  -33,   69,  -41,  101,   62,    7,   57,  -71, -101,   13,
         43,  -20,   27,  -44,   65,  -83,   95,   87,   50,  -34,  119,
        -97,   64,  -98,  -21,    8,  -31, -113,  -67,    2,  -71, -127,
         88,   -9,   28, -117,   58,   79, -120,  -39,  -74, -120,  -46,
         43,   67,   28,   -2,  -86,   -5,    9,   72,   39,  -34,    9,
       -113,  -47,   52,   54, -102,   -7,  -46, -126,   82,  -17,   72,
         74,   66,   56,  -83,  101,   57,  100,   93,  -38,   70,   88,
       -116,  -30,  -90, -115,   72,   60,  116,   93, -105,   35,  -82,
        -45,   38, -113,   46,   45,  -80,  -73,   37,   11,  -62,  -22,
        -51,  -89,   92,  -29,  105,  101, -108,  -87,   86,  -45,  -16,
        -16,   24,  -18,  -58,  113,   98,  124,  105,   59,   29, -121,
         28,  -51,  -12,   56,   84,  -84,   55, -116,   12,  114,  -10,
          4,  -69,  125,  -26,  -38,  -78,   98, -111,   10,  -86,   13,
         22, -115,   21,   61, -112,  -53,    7,  -82,  105,  -39,  -33,
        115,   55,  -15,   -8,  120,  -72,  -41, -114,  126, -114,   64,
        -74,  116,  -38, -117,   94,   -2,  110,  102,   27,   18,  -50,
         19,  -57,  126,  111,   16,   -4,   76,   13,  -76,  -73,  126,
        -62, -125,  -27, -109,  -52,   79, -103,   55,  -38,   51,   37,
        -52,   65,   55, -124,  -53,  117,  -94, -111,   32,  -83, -112,
        100,   31, -128,   99,   14,   80,    3,    4,  116, -101,  -64,
       -118,   66,  116,  127,   99,  -37,  -15,   -4,  -15,   -4,    1,
          7,   -7, -119,   -9,   33,   56,   56,   66,  -61,   94,  -74,
         32,  -82,   45, -103,  -92, -104,  -67,  124,   88,  -85,  -36,
         72,   67,  -79,  114,  -27,   13,  -32, -111,  -76,   98,  -76,
         14,   -9,   91,   68,   34,   65,  -29,  111,   99,  103,  -38,
         87,  -19,   27,   77,   85, -121,   25,  117, -101,  123,   33,
        -35,  -61,  125,  122,   44,  -15, -104,  -31,  108,  -47,   58,
        -17, -118, -103,   27,  103,    9,    8,   31,   74,  -43,  100,
         99,  105,  -24,  124,   87,  -87,  120,   17,   17,  -16,   22,
         10, -106, -125,  -78,    0,   96,   36,   51,   80,   -9,   64,
         15,   72,   50,   -8,   41,   41,  -17,  -51, -107,   65,   36,
        -78,   86,  120,  -25,  -96,  -48, -101,   51,   70,  -13,  -44,
         79,   88,  -13,  -15,  -91,   68,  109,   11, -113,  116, -115,
        117,  113,  -31,   75,  -60,  -59,  -88,  -39,    0,  -22,    5,
        103,  115,  -91,  104,   81,   96,    0,  -84,   96,  -72,  -70,
       -128,  -77, -124,   74,   86,  124,  -96,  -36,  -74, -127,   19,
         94,  -42,   77,  -72,  -69,    6,  -33,  -72,   93,  -27,   57,
        -49,   85,   81,  -36, -101,  -56,   31,   37,   58,   99,  109,
        -72,  115,   16,   82,   90,  -22,   99,  -62, -115,  109,  -49,
         72,  -31,  -96,   16,  -31,    5,   23,  114,    5,   61,   68,
         19,   -1,    9,   85, -121,  -45,   49, -109,  109,  125,   26,
         36,  -93, -107,   60,  -46,  -78,   82,  -28,  -61,   94,  109,
        114,   57,  -10,   27,  -56,   37,  -45,  -59,   42,  -84,   18,
         77,  -82,  -96,  -84,  -91,  124,  114,   -2,   76,   -9,   25,
        -81,  -87,  -72,  -18,  -38,  120,   20,  127,   48, -119,   41,
        123,   -1, -101,  -59,   71,  -63,  -14,   73,  -67,  105,  -35,
         21,  -36,  -98,   86, -127,    1,   50,   84,  102,  -67,  -77,
         88,   45,  -97,   32,   70,   -9,   80, -106,    8,   39,  -80,
         -7, -110,   43,  -74,  -87, -120,   82,   60,  -11,  125,  127,
         42,  -49, -127,  -18,   73,   -1,  118, -106,  -92, -114,   32,
         21, -127,   -1,   -3,   40,   -7,  -21,  -93,   34,   38,  -52,
       -118,   82,   56, -112,  -48,  122,  127, -128,   31,   76,  -13,
        110,    7,   37,   51,   91, -104,   -2,  -31,  127,   44,  107,
        -24,   67,   -5,   97,   35,  -63, -108,   47,   97, -117,  -83,
          5,   71,   58,   52, -111,   77,  -65,   -9,   18, -110,  -94,
         12,  -75,  -67,   88,   18,  -32,  105,  105,  -61,  123,   47,
        -43,  106,   32,   70,  -83,   91,   77,   99,  101,   -7,  -51,
         64, -120,  -93,  -62,  -46,    6,   47,  -33,  106,  -23,  -55,
       -111,   44,   52,   -8,  -64,  -26,   61,  -80,   51,   53,  107,
        122,   41,    8,    9,   62,   75,   79,  -34,   81,  -59,   61,
        -53,  -60,   -3, -109,  -29,   -9,  -30,  -44,  107,   92, -112,
          5,   17,  -97,   63,  -67,  -31,  -13, -109,  -81,   35,  -64,
        -49,  -95,  -62,   50,  -91,   10,  -41,  118,  -58,   42,  103,
         14,  -47,   58,  101, -128,   31,  -56,  -51,   96,   10,   33,
         64,   31,  -52,   30,   88,  -31,   75,   17,  -20,  -21,  -80,
         -2,  -95,  -39, -126,  117, -103,  109,  -70,   45,  -24,   43,
         50,   46,   28,   99,   40,   52,   40,  -31,   63, -113,  -90,
        -42,    4, -109, -100,  111,  111,  -98, -119,   97,  -21,   14,
        111,  -44,   92,  -54,   40,  -28,  -13,  116,  122,  -93,   81,
        -24,  -36,   33,  -16,   83,  -19,   77,  -34,   91,  -52,  -96,
         81,  -91,   87,  -36,  -50,  -67,  -47,  114,  -17,  -28,  121,
        107,  -19, -105,  -21,   -2,   27,  -23,  127,   70,  125,  -49,
       -126,    5,  -38,  -82,   83, -116,  -96,  -10,   98,  -52, -120,
        -91, -114,  -57,    1,  -15, -110,  -96,  101,   21, -126,  -90,
       -126, -108,  107,   44,  -57,  -95,  124,   56, -103, -112,   -1,
         72,  -51,   55,   89,   64,  -72,   37, -116,  104, -105,  -87,
        -23,   42,  -70,  -47,  -93,  -27,   92,  -89, -119,  -75,   90,
        109,   48,  123, -112,  -14, -119,   87, -110,   80,  -91, -124,
        -25,   56,  121,  -31,  113,   36,  -26, -112,   57,   73,   63,
        -25,  -26,  -17,  -77, -103,  -43,  124, -125,   40,   71,  109,
        101,   20,   59,  -60,   13,   23,   82, -103,   66,  112,  -26,
        -13,   42,   -7,   21,  -21,  -21,  -47,   40,  103,  -34,  103,
        116,  105,  -60,   82,  110,   83,  -29,   33,  -81,  -38, -110,
         16,  -92,   98,  -17, -102,  108,  -53,  -57,  -84,  -94,  105,
         -4, -101,  -63,  115,   85,    9,  -14,   66,  -15,  110,  -54,
         10,  -52,   93,   51,  -92,   68,   76,  -35,  -45,  -64,   47,
        -15,   58,   -7,   58,  -42, -123, -122,  -15,  -48, -113,   -4,
         32,   42, -125, -115,  -14,  -14,   -3,  -23,  -74,  -59,  -70,
         33,   25,  -48,   65,  120,   50,  -58, -122,   58, -104,   95,
        -49,   -3,  -84,   83,   45,  -58,  102, -104,  -82,  -49,   28,
        102,  -37,   47,  106,   96,  107,  -88,    5,  -37, -122,   50,
         23,  -11,  111,   37,    3,  -56,  -56,   83,  -55,   97,   67,
         63,  -62,  -55,   99,  126,  -55,  118,  126,  115,   32,  117,
        -28, -125, -122,  -49,   50,   49,   82,  -14,    4, -121,  -41,
        118,   -7,  -89, -100, -107,   66,  -48,  -84,  124,  -15,  -88,
         28,  -35,  -21,  108,  -46,   11,   62,    6,   70,  -69,   21,
         59, -103,   76,   45,  -65,   95,   98,    0,  -78, -105,   99,
         47,  -95,  -45,  100,  -49,   87,   30,  111,   20,  107,  100,
         50,   -4,   22,   38,  116,  -32,   -3, -105,   -3, -103,   77,
        113,   34,  -40,   91,  -13,  -13,   96, -116,  103, -100,   93,
        -59,  110, -119,  -99,   50,   12, -116,  -91, -114,  101,    3,
       -117, -113,  121,   38,   -6,    0,  110,   17,  -76,   71,  -35,
       -104,  -50,  -48,   17,   33,   11,  -50,   44,  -82, -107,   29,
         56,   50,   41,  -58,  -85,  -68,  127,   37,  -81,   -3,  -16,
        104,  -95,  -47,   43,    4,  -61,   67,  -30,   72,  -62,  -93,
         69,   27,   24,  -28,   55,  109, -109,  -37,  -89,   13, -102,
         80,  -91,   46,   41, -123,  -93, -125,   -4, -124,  127,  -37,
         93,  -76,   62,   -6, -116,   85,  -19,  -90,  -40, -101,  103,
        -20,  -12,  -62,  -64,  105,   -1,   13,  105,  110,   87,  -32,
         -4,  -44,  -82,   52,   -4,   59,   37,  -84,  -57,  112,  113,
         65,   12,  -59, -116, -101,  -72, -111,  -94,   92,   33,  125,
        -20,  -63,   59, -112,  -42,  -32,   12,  -53,   79,  -91,   39,
        -47,   84, -115,   96,   17,   10,   47,   -1,  -35, -114, -103,
        -42,  103,   -9,  -14,  -65,  111,   31,  126, -101,   32,   -2,
        119,   55, -116,  -38,   43,  -85,   43,   23,   87,   54,   -3,
          6,  -74,  -30,  107, -115,  -52,  -94,  -70,  123,  -60,  -98,
        124,  -45,  -51,   59,  -35, -104,  -96,   47,   10,  119,   86,
         54,   39,    9,   36, -110,  -93,  127,  -51,   85,   46,  -66,
        115,  -83,  -34,  123,  -94,  101,   65,  -74,   49,  -93,  -99,
        -50,  -94,  -41,   15,   93,  -73,  119,  -41,   -2,  106,   86,
        -29,  -21,   61,  -80,   -6,   76,  -91,  111,  -43,  -28, -103,
         89,  114,   80,   28,  -87,  103, -123,    1,  -91,  -85,   86,
         69,   45,  -21,  117,  -26,   -9,   52,   17,  -23,  -29,   46,
        -42,    2,  -92,   -4, -119,   27,  -50,   53,  114,   55,   16,
         60,   42,  -12, -109,  -80,   20,   59, -124,   49,   57,  -18,
        100,   39,   31, -117,   12,  -96,  -72,    9,   -6,  -93,  -65,
       -103,   66,  -87,  113,  -82,   39,   65,  111,   25,   39,  125,
        -32,   12,  -64,  -27,   48,  -46, -106,  -12,  110,  110,   93,
         73, -111,  -34,  114,   -4,   77,   93,  -58,  -87,    2,  -68,
        122,  -97, -110,  115,  -30, -123,   47,   23,  125,   22,  -70,
         23,  -64, -104,  100,  -94,  -36,  113,  -29,  107,   88,  -38,
        -35,   59,  -36,   88,  -48,  -73,   -2, -127,   65,  -45, -116,
         78,  -35,   59, -116,   55,   66,  122,   42,   91,   58,  -60,
       -112,   21,  -57,  -66,  119,  -70,  126, -126,   28,  -59,   44,
        -81, -101,   -1,  -43,   -2,   24,   13,  -68,   58,  121,  123,
         21,   55,   20,   22,   51,   89,  126,  -20,  -25,  -64,    3,
          1, -126,   36,  -77,   67,  101,  -46, -104,   51,  -91,   26,
         21,  -30,  -60,  -38,   66,   86,   51, -127,   62,  113,   -8,
        -49, -103,   -6, -110, -124,   98, -119,  -39,    9,  -39,  -72,
         -5,  -14,   96,   11,   56,   41,  -59,  122,  -62, -123,  -82,
         58,   40,  -31,   -6, -108,   57,  -27,  -16,  -10,   48,  -25,
        -98,   45, -109,   25,    8,  -39,   33,  -48,   45,   11,  -21,
        -35,   11,   70,   49,  118,  -14,  -25, -110,   60,   91,   31,
         66,   70,   33,  -50,  -96,  -74,   53,   -9,   12,   82,  -90,
         71,   87,  110,  -72,  -46,   27,  -56,   47,  -56,  -25,   28,
         -3,  -70,   -6,  -78,   97,   20, -101,  -88,  114,   10, -119,
        -54,  -21,  -63,   76,  -64,  -32,   26, -111,  118,  -44,  -76,
        -83,  -50,   74, -101,   21,  106,   41,   47,  -72, -125,  -18,
        -45,  -19,   84,  -18,  -55,  -37,   65,    6,  -96,   46,   37,
         51,   57,  106,  -37,  -52,  -12,  -70,   -5, -125,  110,  -97,
       -106, -106, -102, -104,   57,  -45,   68,   64,  -79,  106,  116,
        -60,  -67,   25,  -40, -103,   18,   35,   67,   10,   71,  -56,
        -46, -107,   12,  -15,  -54,  109,  105,   70,  126,   21,   -8,
        -22,   41,   74,  -50,  -85,  -49,  -41,  -69, -119, -104,  -53,
        -87,   96,    4,  -81,  101,  -16,  108,   30,   89,   56,  -95,
         35,  -28,   80,  127,   73,  101, -124,  127,   76,   54,  -59,
        -25,   56,  102,   30,   74,  -92,   67,  108,  -38,   91,  -40,
         96,  126,   58, -102,   23, -117,   22,   78,   51,  -52,   90,
        -80,  -18,   18,   84,  -33,   61,  -44,   37,  -49,   21,   83,
          4,   65,   -9,   23,  105,   27,   76,   29,    1, -122,   86,
        -63,  -96,   65,  -43,   29,   93,   42, -118,  -56,  -64,   64,
        119,  105,   91,  -23,   31, -112,  -77,  -15,   66, -122,   86,
        -11,  -94,   11,  -98,   -4,  -46, -123,  -83,   45,   92,   92,
         16,  -28,  -72, -120,   93,  -22, -126,    1, -122,   45, -119,
         61,  -14,   87,   99,  -88,   84,  -73, -112,  -98,  -24,   73,
       -103,   94,  -35,   83,   21,   26,    1,  -88, -110, -102,  -15,
         39,   22,  -90,  -89,  -76,  -78,   22,  -44,  -54,  -61,   85,
         97,  -14,  -25,  -57,  -51,  125,   49,  -23,  -91,   36, -119,
        -72,  -16,  118,  -43, -102,  119,  124, -116,  112, -116,  -19,
       -100,   67,   90,  -20,   52,   78,   54,  -59,   -2,  -22,   35,
         65,  -23, -118,   73,   83,  -42,  -48,   26,   34,  107, -122,
        -51,  124,  -35,  -41,  115,   68,   43, -111,  -86,  -62,  123,
        -96,  -96,   93,   -1,  -46,  -45,   22,  -39,    6,  -32,   70,
        -30,  -75,  122,  -62, -120,  -85,   45,  -27,   56,   69,  104,
         70,  123,  -66,  -10,  -37,    4,  -61,   68,   99,   40,  104,
         -8,  118,   47,   88,  -50,  -72, -101,   10,   96,    3, -124,
        121,   96,  112,   52,  -51,  -27,  -32,  -79,  102,   93,  115,
        -76,   30,   93,  -63,  102,  -41,  -75,   71,  -52,   -5,   30,
        -36, -117,   14,  -61,   65, -111,   59,   78,  110,  -32,  -17,
        -23,  -51,  -91,   36,  -87, -124,   46,  -33,  -51,  -23,    4,
         62,   82,  -23, -107,    0,   88,   -4,  -89,    3,   38,  -27,
         64,   -1,   95,   23,   62,   63,  -52,   65,   42,   -3,  -20,
        -96,   98,  -81,  -71,   39, -109,  -41, -116,  115,   10,   44,
          3,   61,   29,  -46,   59,   10,   27,  -91,  -63,  -93,    6,
        -93,  -41,   13,   83, -109,    3,   78, -112,   43,   89, -125,
        -22,  -23,  -71,  -49,  -93,   15,  121,   -2,   62,   29,  -25,
        -48,   65,  -89,   61, -126,    1,  -93,   65,   62,  126,  -46,
       -106,   -5,    4,  -36,  103,   93,  -66,   -8,   49,  -63,   39,
         18,   42,   55,  -89,   93,  -62,  -64,  -38,   62,   12, -119,
        124, -128,   70,   18,  -90,   69,   35,  -50,  -62,   98, -125,
         62,  -82,   22,   42,    1,   -7,   88,   75,   75,  -79,  -88,
         72,   58,  -33,   88, -110,   76,  124,  -24,  -66,  114,  123,
         72,  -39,  -44,   97,   98,  -31,   43,  -80,  -24, -112,   99,
       -123,  -73,   48,  -30,   81,   68,  -70,  -80, -127,  -81,   37,
        106,  100,  -84,   39,  -40,   84,  109,  112,  -57,  -10,   97,
       -103,   -4,   19,   44,   -7,   95,   86,    2,   90,  -48,   60,
         52,   18,   30,    3,  -26,  125,    1, -127,   36,  -39,   71,
         63,  -42,   68,  -60,  -92,   30,   56,  127,  117,   94,  -92,
        -92,  -61,  -38,  -77,  -27,    2, -122, -111,  -71,  -12, -116,
        -42,   41,   58,   -5,   69, -109,   14,  108,  -80,   78,  -61,
         73, -113,  -38,  -96,  -41,  -47,   29,   79,   99,  -91,   23,
        -27,  -44,   76,  -15,   30,    3,  -29,   13, -115, -125,  -29,
        -57,   50,  -17,  -29,   96,  -42,  -76, -104,   23,   72,  127,
          4,   43,  -92,   79,   13, -123,   27,  -15,  -61,   84,  -91,
         38,  -34,  -26,  100, -125,   10,   50,  114,   49,   83,    2,
         19, -122,  -16,  -95,   27,  -83,  -66,   38,  -63,   26,  -60,
       -108,  -25, -118,  118,   56,  102,   30,   53,  -73,  -67,  -56,
         33,   48,   88,  -82,  -54, -112,  -51,   40,   12,  120,    5,
        -43,   57,  -61,  -59,  114,    5,   34,  -78, -122,  126,   25,
        -14,   67, -105,   66,   30,   44,   55,   13,   65,  -81,  -10,
         -6,   55,  -34,   17,    3,   41,   49,  -10,  -86,  -75, -123,
        -86, -115,  -65,   26, -122,   58,  -79,   24,  -27,  -16,  -90,
        -28,   97,  -43,  -85,   -6,  -92,  -84,  -17,  115,  -91,  108,
        -18,   71,  -61,   34,   32, -105,  -47,   89,  -76,  -28,   -2,
          8,   43,  -51, -123,   73,   71,  -90,  116,  -64,   60,  -44,
         28,  -71,  -27,  -93, -124,  -96,  -33,   -8, -113,   26,   42,
        -18,   61,   45,  118,   99,   19,  -56,  -52, -100,  -67,    4,
         72,    7,   98,   48,   34,  -75,  -87,  108, -100,   87,  -92,
        -91,  -77,  -94,   83,   21, -111, -127,   11,  -30,   16, -127,
       -106, -100,  114,   -4,  -21,   61,   38,  105,  -41,   36,   62,
         84,   -6,   -9,  -11,  -26,  -86,  107, -119,  -71,  114,   -9,
       -128,  -81,   44, -123,  -93,  -98,   65,   35,  -87,   77,  103,
       -115,    9,   64,  -54,  102,   -4,   70,  -42,   88, -101,   -6,
        117,   15,  124,   69,  -83, -120,  -45,   99,  -44,  -87, -127,
       -125,   15,  -89,   15,   53, -105,   21,   93,   91,   66,   -2,
        -95,   21,   52,   -1,  -60,  -94,   50,   38,  -39,   81,  -80,
        127,    6,  -22,  118,   32,  118,   23,  -97,   37,   40,  -51,
        -84, -118,  -44,  -30,  123,   52,   40, -127, -128,  -62,  -96,
         95,   38, -102,  -85,  -65, -101,   -2,  108,   74,   77,  107,
        -27,   40,  122,   86,   -7,  100,  -57, -120,  -12,  104,  -23,
         69, -105,  121,   78,  -72,  -76,  107, -114,  103,  -64, -114,
        -84,   79,   40,  -73,  126,   85, -123, -116, -106,   86,  -97,
         79,  -76,   23,   -6,   21,  102,   55,    4,   59,  109,  -29,
        -35,   88, -102,  -52,   17,  -93,   17,  111,  -49,  121,   74,
       -127,  -34,   84,  -48,   37,  -29,   86,    2, -101,  -50,   39,
        -76,   46,   29,   86,   89,  112,  116,  -67, -124, -114,  100,
         48,  -79,  -53, -122,  118,   96,   93,  103,  -46,   49,   31,
       -103, -107,  -48,   28,   46,  124,  -83,   85,  120,   26, -105,
         36,   39,   -1,   27,   39,   40, -123,   48,  -44,  -44,  -84,
        126,  -33,   22,   91,   63,  -19,  121,  109,  118,   17,  -98,
        105, -100,    7,  -24,  101,  -46,  117,  -35,   -2,   15,   97,
        127,   69,  -59,  -56,   74,   43,    5,   75,   63,  122, -120,
         92,   95,   30,  -21,   52,   46, -101, -106,   67,   31,  103,
        -64,   16,  -74, -114,  -23,  -15,  -94,    9,   51,  -20,  120,
         -2, -127,    5,  -71,  -78,  -42,   28,  103,   62,  -77,   49,
        -20,  -61,    9,   44,  -22,  -19, -121,  -15,  118,  100,  103,
        -77,  -56,  111,  -58,  105,  -96,  -94,   68,  -17, -120,  -83,
        -81,  -38,   50,  -93,  -82,  -70, -112,  -19,  -96,  118,  -49,
        120,   16,   21,  -85,   10,  -13,   98,   38,  -50,    8,   28,
         14,  -91,  105,  -22,   35,   67,   24,  -48,  -67,   26,   95,
         92,  -93,   72,  -12,    6, -101,  -28,  -12,   66,  -58,  112,
         91,    6,  -74,  119,  -67,   76,   -7, -118,  102,  -52,   50,
         14,  104,    6, -105,  -51,   31,  115,   14, -102,  118,  -82,
        -56,  -32, -115,   44,  -66,  -17,   33,  104, -119,   -2,   15,
        -25,  -29,   16,  -64,  102,    6,  111,   18,    7,   90,  -83,
        -94,  -52,   -3,  -13,   -2,  -29,  -23,  -20,   90, -121,  -67,
        -11,   80,   52,   87,   46,  -20, -100,  117,   59,   44, -103,
         25,   99,  -22,  -38,   77,  103,  -46,  -63,   49,  -29,    7,
        120, -112,  -89,   -5,  -56,  101,   35,   89,   94,  113,  103,
         89,  -54,  -47,   52,   -5,   32,  -39,   98,   79, -103, -108,
        107, -118,  -50, -103,  -74,  100,   -1,  -82,   10,  -92,   68,
       -128,    5,  -90,  117,   62,  -96,   63,  101,   45,  -20,   -7,
        -68,  -18,   69, -109,  116,  122, -118,  -32,  -93,   75,   62,
        -86,  126,   24,    3,  -77,  -55,   71,   82,  -42,  104,  -80,
         83,  -62,  113,   85,  107,  116, -106,   75,    3,   -6,  -85,
         40, -113,   17, -103,   97,  -24,   46,  -52,  -88, -116,   25,
        113,  -85, -111,  -76,  -33,    7,  101,  107,   44,    2,  -29,
         77,  105,   29,  -31,   50,  -41,  -68,   30,   78,  116,  -48,
       -117,  -40, -104,  -45, -108,  112,  119,  -92,   17,   -1,   95,
         92,   68,   12,  -79,   67,  -77,  -88,   67,  -39,  -41,  -94,
         53,   22,  -96,   12,   86,  -43,  107,   82,  -49,  -31,   -2,
          3,  -38,  -49,  -13, -114,   75, -100,   47,   11,  -34, -109,
        116, -103, -122,  -62,   99,  -34,   94,  -90,    4,  -17, -113,
        -42,   53,  -78, -124,  -91,  -42,  106,  -84,  105,   28,   52,
         24,  -11,   71,   -1,    7,  -12,  -27,   73,   39,  -43,  103,
        109,   -6,  -13,   98,  -33,  -77, -119,  113,   85,   93,   60,
        -11,  -92,   34,   58, -114,  110,   81,  -90,   98,  -56,  -62,
        -15,  -85,  -90,  -34,  -65,   40,  -62,   -5,  -21,   73,   30,
       -127, -111,  112,  -34,  -61,   15,   64,  -25,  121,  114,   76,
         36, -105,  -34,   86,  108,  -91,   44,    6,    7,  -59,  -45,
        109,   55,  -17,   67,   55, -127,   30, -111,   52,  -27, -104,
         82, -125,  -96,  115,   -6,  -23, -103,  120,   76,  -87,  -66,
        -26,   70,  -92,   52,  120,  -98,  -81,  -91,   99,   58, -108,
        -34,  -40,  108,  -98,  -88,  -88,  120,  -66, -103,  -22,   54,
        116,  115,  -48,  -95,  -52,  -32,  110,   11,  -10,   43,  -91,
         46,  -23, -117,   80,   92, -104,  -28,   77,  -74,  114,  118,
         48,  -28,   76, -108,   55,  -57,   67,   94,  100,   87,  -24,
         79,   92,   22,   20,  -34,   17,  -39,   95,   22,  -93,  -72,
        -45,  107,    6,   55,  -18,   78,   78,  103,   57,  -84,  114,
       -107,   49,  -52,  107,  -33,  -41,  111,  -28,   25,  -82,   31,
         27,   77,  119,  -88,  -13,  -17,  -45,   98,  -18,  -89,   11,
         -8, -104,  -87, -106,  -81,  -91,  -92,   16,  -44, -126,  -49,
        -90,  -10,   44,   26,  112,   21,   73, -114, -124, -100,   64,
       -103,   12,   39,  113,   78,   52,   12,    6,   95,   49,   49,
        -60,   35,  109, -100,  -73,  -32,  -35, -106,   71,   46,  -26,
        101, -105,  -56,  -18,   53,   69,   78,   32,   46,  -88,   37,
         11,  -91,   58,   90,  -25,   42,   -9,  112,   51,  -80,  114,
        -40,    2,   67,  -92,  -32,    8,  100,  105,   61,   81,    4,
        -23,   34, -105,   35,  -25,    9,  120,   85,   73,  -64,  -12,
       -104,   63, -116,   83,  -61,   11,  -50,  -87, -102,  116,   80,
         60,   18, -127,   74,   87,   70,   64,  122,  -83,  115,  123,
          7,   56,  117,   -9,   46,  -29,   69,  -31,  -77,  111,  107,
        -37,   59,  -10,  -23,   77, -106,  -80,  127,   64,   57,    8,
        -94,  -10,   58,  111,   14,   37,   27, -124,  101,  -78,  123,
        121, -124,  -27,   63,  -48,   53, -115,   54, -108,   85,   41,
       -109,  -67,   79,  -67,   24,   18,  -93,  122,   88,  -41,  -58,
         61, -113,  -74,  115,   -4,  -47,   34,   32,   25,   40,  109,
         63,   45,   -5,  -60,  -19,  125,   71,    8,  124,  118, -109,
         41,   52,  -10,  -70,  115,   52,    6,  -30,   43,  -56,   -6,
         30,  -59,  114,  116,  110,  -50,  -64,  -22,  101,  -55,  -45,
